<?xml version="1.0"?>
<opencv_storage>
<opencv_ml_svm>
  <format>3</format>
  <svmType>C_SVC</svmType>
  <kernel>
    <type>INTER</type>
    <gamma>1.</gamma></kernel>
  <C>1.</C>
  <term_criteria><epsilon>1.1920928955078125e-07</epsilon>
    <iterations>1000</iterations></term_criteria>
  <var_count>500</var_count>
  <class_count>20</class_count>
  <class_labels type_id="opencv-matrix">
    <rows>20</rows>
    <cols>1</cols>
    <dt>i</dt>
    <data>
      0 1 2 3 4 5 6 7 8 9 10 11 12 13 14 15 16 17 18 19</data></class_labels>
  <sv_total>596</sv_total>
  <support_vectors>
    <_>
      0. 0. 0. 1.02040814e-02 0. 0. 0. 5.10204071e-03 0. 0. 0.
      2.55102036e-03 2.55102036e-03 2.55102036e-03 0. 5.10204071e-03
      2.55102036e-03 2.55102036e-03 0. 0. 7.65306130e-03 0.
      2.55102036e-03 0. 2.55102036e-03 0. 0. 0. 0. 0. 0. 0. 0.
      2.55102036e-03 0. 0. 2.55102036e-03 5.10204071e-03 5.10204071e-03
      0. 0. 2.55102036e-03 0. 0. 0. 2.55102036e-03 5.10204071e-03
      2.55102036e-03 0. 0. 0. 0. 2.55102036e-03 2.55102036e-03
      7.65306130e-03 5.10204071e-03 0. 2.55102036e-03 2.55102036e-03 0.
      0. 7.65306130e-03 2.55102036e-03 0. 5.10204071e-03 0.
      5.10204071e-03 0. 5.10204071e-03 0. 0. 2.55102036e-03 0.
      2.55102036e-03 2.55102036e-03 0. 0. 5.10204071e-03 1.27551025e-02
      5.10204071e-03 2.55102036e-03 5.10204071e-03 2.55102036e-03 0. 0.
      0. 0. 0. 0. 0. 0. 2.55102036e-03 0. 5.10204071e-03 0.
      1.02040814e-02 0. 5.10204071e-03 0. 0. 0. 2.55102036e-03 0. 0. 0.
      2.55102036e-03 0. 5.10204071e-03 0. 5.10204071e-03 5.10204071e-03
      2.55102036e-03 0. 0. 0. 0. 2.55102036e-03 0. 0. 7.65306130e-03
      5.10204071e-03 0. 0. 5.10204071e-03 2.55102036e-03 0. 0. 0.
      1.02040814e-02 2.55102036e-03 0. 7.65306130e-03 5.10204071e-03 0.
      0. 2.55102036e-03 2.55102036e-03 2.55102036e-03 0. 7.65306130e-03
      1.02040814e-02 0. 2.55102036e-03 0. 5.10204071e-03 5.10204071e-03
      0. 2.55102036e-03 0. 0. 0. 2.55102036e-03 0. 0. 0. 5.10204071e-03
      0. 0. 7.65306130e-03 0. 0. 2.55102036e-03 1.02040814e-02
      2.55102036e-03 7.65306130e-03 0. 0. 2.55102036e-03 5.10204071e-03
      0. 0. 0. 0. 0. 0. 0. 5.10204071e-03 2.55102036e-03 0. 0. 0.
      7.65306130e-03 2.55102036e-03 0. 5.10204071e-03 0. 7.65306130e-03
      0. 0. 0. 2.55102036e-03 0. 0. 0. 0. 1.02040814e-02 0. 0.
      2.55102036e-03 0. 2.55102036e-03 1.53061226e-02 0. 0.
      2.55102036e-03 0. 0. 0. 0. 2.55102036e-03 0. 2.55102036e-03
      2.55102036e-03 2.55102036e-03 1.02040814e-02 0. 2.55102036e-03 0.
      0. 0. 0. 5.10204071e-03 0. 2.55102036e-03 0. 0. 7.65306130e-03 0.
      2.55102036e-03 2.55102036e-03 0. 2.55102036e-03 2.55102036e-03 0.
      2.55102036e-03 0. 0. 0. 2.55102036e-03 0. 0. 0. 0. 1.53061226e-02
      2.55102036e-03 2.55102036e-03 5.10204071e-03 0. 0. 0. 0.
      5.10204071e-03 2.55102036e-03 0. 0. 5.10204071e-03 0.
      5.10204071e-03 0. 2.55102036e-03 0. 0. 7.65306130e-03 0. 0.
      5.10204071e-03 0. 2.55102036e-03 0. 0. 7.65306130e-03 0. 0.
      2.55102036e-03 0. 0. 0. 5.10204071e-03 0. 0. 2.55102036e-03 0.
      7.65306130e-03 0. 0. 0. 0. 0. 2.55102036e-03 2.55102036e-03 0. 0.
      1.53061226e-02 2.55102036e-03 0. 2.55102036e-03 2.55102036e-03
      2.55102036e-03 5.10204071e-03 5.10204071e-03 2.55102036e-03 0. 0.
      0. 2.55102036e-03 0. 2.55102036e-03 0. 0. 2.55102036e-03
      7.65306130e-03 2.55102036e-03 5.10204071e-03 1.02040814e-02 0. 0.
      0. 1.02040814e-02 0. 0. 0. 1.02040814e-02 0. 0. 0. 0. 0.
      2.55102036e-03 2.55102036e-03 2.55102036e-03 0. 2.55102036e-03 0.
      0. 0. 0. 0. 2.55102036e-03 0. 0. 0. 0. 0. 0. 2.55102036e-03
      2.55102036e-03 0. 0. 0. 2.55102036e-03 2.55102036e-03
      7.65306130e-03 2.55102036e-03 0. 0. 2.55102036e-03 0.
      7.65306130e-03 0. 0. 7.65306130e-03 5.10204071e-03 0.
      2.55102036e-03 0. 2.55102036e-03 0. 2.55102036e-03 2.55102036e-03
      5.10204071e-03 0. 2.55102036e-03 0. 0. 0. 2.55102036e-03
      2.55102036e-03 2.55102036e-03 0. 0. 0. 2.55102036e-03
      2.55102036e-03 2.55102036e-03 0. 2.55102036e-03 0. 7.65306130e-03
      7.65306130e-03 7.65306130e-03 0. 0. 7.65306130e-03 5.10204071e-03
      0. 0. 0. 5.10204071e-03 0. 0. 5.10204071e-03 2.55102036e-03
      2.55102036e-03 0. 0. 2.55102036e-03 5.10204071e-03 5.10204071e-03
      0. 0. 2.55102036e-03 2.55102036e-03 0. 0. 2.55102036e-03
      5.10204071e-03 0. 2.55102036e-03 2.55102036e-03 2.55102036e-03 0.
      5.10204071e-03 5.10204071e-03 0. 0. 0. 2.55102036e-03
      2.55102036e-03 0. 2.55102036e-03 1.27551025e-02 5.10204071e-03 0.
      0. 2.55102036e-03 0. 2.55102036e-03 7.65306130e-03 2.55102036e-03
      5.10204071e-03 0. 7.65306130e-03 5.10204071e-03 2.55102036e-03 0.
      0. 7.65306130e-03 2.55102036e-03 0. 5.10204071e-03 5.10204071e-03
      2.55102036e-03 0. 0. 2.55102036e-03 0. 7.65306130e-03 0.
      5.10204071e-03 0. 1.02040814e-02 2.55102036e-03 0. 5.10204071e-03
      0. 5.10204071e-03 0. 0. 2.55102036e-03 0. 0. 2.55102036e-03 0.
      2.55102036e-03 0. 2.55102036e-03 0. 5.10204071e-03 2.55102036e-03
      5.10204071e-03 5.10204071e-03 2.55102036e-03 5.10204071e-03 0. 0.
      0. 0. 0. 0. 2.55102036e-03 0. 0. 0. 2.55102036e-03 2.55102036e-03
      0. 0. 0. 0. 0.</_>
    <_>
      4.68384055e-03 4.68384055e-03 0. 0. 0. 0. 2.34192028e-03
      2.34192028e-03 2.34192028e-03 0. 0. 0. 4.68384055e-03
      2.34192028e-03 0. 7.02576106e-03 0. 7.02576106e-03 7.02576106e-03
      2.34192028e-03 2.34192028e-03 4.68384055e-03 4.68384055e-03 0.
      2.34192028e-03 0. 0. 0. 2.34192028e-03 9.36768111e-03 0.
      2.34192028e-03 0. 0. 2.34192028e-03 0. 2.34192028e-03 0.
      4.68384055e-03 0. 0. 7.02576106e-03 0. 2.34192028e-03
      2.34192028e-03 2.34192028e-03 4.68384055e-03 2.34192028e-03
      4.68384055e-03 0. 0. 2.34192028e-03 9.36768111e-03 2.34192028e-03
      4.68384055e-03 4.68384055e-03 0. 2.34192028e-03 4.68384055e-03 0.
      2.34192028e-03 0. 2.34192028e-03 2.34192028e-03 7.02576106e-03 0.
      0. 0. 4.68384055e-03 0. 0. 0. 2.34192028e-03 0. 0. 2.34192028e-03
      4.68384055e-03 2.34192028e-03 2.34192028e-03 7.02576106e-03
      2.34192028e-03 0. 0. 0. 2.34192028e-03 0. 2.34192028e-03 0. 0. 0.
      0. 0. 0. 2.34192028e-03 4.68384055e-03 0. 2.34192028e-03 0.
      2.34192028e-03 4.68384055e-03 0. 0. 4.68384055e-03 0. 0. 0.
      4.68384055e-03 0. 7.02576106e-03 0. 2.34192028e-03 2.34192028e-03
      0. 9.36768111e-03 0. 0. 2.34192028e-03 0. 0. 0. 4.68384055e-03 0.
      0. 0. 2.34192028e-03 0. 0. 2.34192028e-03 0. 2.34192028e-03
      4.68384055e-03 0. 0. 0. 0. 2.34192028e-03 9.36768111e-03
      2.34192028e-03 0. 0. 0. 0. 0. 0. 2.34192028e-03 0. 2.34192028e-03
      2.34192028e-03 0. 0. 2.34192028e-03 7.02576106e-03 1.87353622e-02
      0. 0. 0. 0. 0. 0. 0. 0. 4.68384055e-03 0. 2.34192028e-03
      1.40515221e-02 0. 2.34192028e-03 0. 0. 0. 2.34192028e-03 0.
      2.34192028e-03 9.36768111e-03 9.36768111e-03 0. 2.34192028e-03 0.
      0. 2.34192028e-03 1.63934417e-02 2.34192028e-03 0. 2.34192028e-03
      2.34192028e-03 0. 2.34192028e-03 4.68384055e-03 0. 4.68384055e-03
      0. 2.34192028e-03 0. 2.34192028e-03 2.34192028e-03 2.34192028e-03
      0. 0. 2.34192028e-03 0. 0. 4.68384055e-03 0. 0. 0. 2.34192028e-03
      0. 4.68384055e-03 2.34192028e-03 2.34192028e-03 0. 2.34192028e-03
      0. 0. 0. 0. 0. 4.68384055e-03 2.34192028e-03 4.68384055e-03
      7.02576106e-03 7.02576106e-03 0. 0. 0. 0. 4.68384055e-03 0.
      2.34192028e-03 0. 2.34192028e-03 4.68384055e-03 4.68384055e-03 0.
      0. 2.34192028e-03 0. 0. 0. 2.34192028e-03 0. 0. 4.68384055e-03 0.
      0. 9.36768111e-03 2.34192028e-03 0. 0. 0. 0. 0. 0. 0.
      2.34192028e-03 0. 0. 2.34192028e-03 9.36768111e-03 2.34192028e-03
      0. 0. 0. 7.02576106e-03 2.34192028e-03 0. 2.34192028e-03
      2.34192028e-03 0. 4.68384055e-03 7.02576106e-03 2.34192028e-03
      2.34192028e-03 0. 2.34192028e-03 0. 2.34192028e-03 2.34192028e-03
      0. 0. 0. 0. 2.34192028e-03 2.34192028e-03 0. 0. 7.02576106e-03
      2.34192028e-03 0. 0. 0. 2.34192028e-03 9.36768111e-03
      2.34192028e-03 4.68384055e-03 0. 0. 2.34192028e-03 7.02576106e-03
      0. 0. 0. 0. 2.34192028e-03 2.34192028e-03 0. 0. 0. 4.68384055e-03
      0. 2.34192028e-03 2.34192028e-03 0. 2.34192028e-03 1.17096016e-02
      2.34192028e-03 0. 0. 7.02576106e-03 0. 0. 0. 2.34192028e-03 0.
      4.68384055e-03 2.34192028e-03 9.36768111e-03 2.34192028e-03 0.
      2.34192028e-03 2.34192028e-03 2.34192028e-03 0. 4.68384055e-03 0.
      7.02576106e-03 0. 4.68384055e-03 0. 0. 2.34192028e-03
      2.34192028e-03 2.34192028e-03 0. 0. 2.34192028e-03 0.
      7.02576106e-03 0. 0. 0. 0. 0. 0. 2.34192028e-03 7.02576106e-03
      1.63934417e-02 7.02576106e-03 0. 0. 1.17096016e-02 2.34192028e-03
      2.34192028e-03 0. 0. 0. 0. 2.34192028e-03 0. 0. 0. 2.34192028e-03
      0. 0. 1.17096016e-02 7.02576106e-03 0. 2.34192028e-03
      2.34192028e-03 7.02576106e-03 0. 0. 4.68384055e-03 1.17096016e-02
      0. 0. 2.34192028e-03 0. 0. 9.36768111e-03 0. 2.34192028e-03 0.
      2.34192028e-03 0. 0. 0. 0. 2.34192028e-03 0. 9.36768111e-03
      2.34192028e-03 0. 2.34192028e-03 0. 0. 2.34192028e-03
      2.34192028e-03 0. 2.34192028e-03 2.34192028e-03 0. 2.34192028e-03
      0. 0. 2.34192028e-03 0. 2.34192028e-03 0. 0. 0. 2.34192028e-03 0.
      0. 0. 4.68384055e-03 0. 2.34192028e-03 4.68384055e-03 0.
      2.34192028e-03 0. 0. 2.34192028e-03 0. 0. 4.68384055e-03 0.
      7.02576106e-03 0. 0. 2.34192028e-03 0. 2.34192028e-03
      4.68384055e-03 4.68384055e-03 0. 0. 0. 0. 2.34192028e-03
      2.34192028e-03 0. 0. 4.68384055e-03 0. 0. 4.68384055e-03
      2.34192028e-03 0. 2.34192028e-03 4.68384055e-03 2.34192028e-03
      1.17096016e-02 0. 4.68384055e-03 0. 0. 0. 0. 0. 2.34192028e-03
      4.68384055e-03 2.34192028e-03 2.34192028e-03 4.68384055e-03
      2.34192028e-03 0. 2.34192028e-03 4.68384055e-03 2.34192028e-03
      4.68384055e-03 1.17096016e-02 7.02576106e-03 9.36768111e-03
      2.34192028e-03 0. 2.34192028e-03 2.34192028e-03 0. 7.02576106e-03
      4.68384055e-03 0. 2.34192028e-03 0. 0. 0. 0. 0. 2.34192028e-03</_>
    <_>
      0. 9.30232555e-03 4.65116277e-03 0. 4.65116277e-03 0.
      2.32558139e-03 6.97674416e-03 0. 2.32558139e-03 2.32558139e-03 0.
      0. 0. 6.97674416e-03 0. 0. 4.65116277e-03 2.32558139e-03
      2.32558139e-03 2.32558139e-03 0. 0. 0. 0. 2.32558139e-03
      2.32558139e-03 4.65116277e-03 0. 0. 2.32558139e-03 0. 0. 0. 0.
      4.65116277e-03 4.65116277e-03 0. 4.65116277e-03 6.97674416e-03 0.
      0. 9.30232555e-03 9.30232555e-03 0. 1.16279069e-02 2.32558139e-03
      4.65116277e-03 2.32558139e-03 2.32558139e-03 2.32558139e-03 0.
      2.32558139e-03 4.65116277e-03 0. 0. 2.32558139e-03 6.97674416e-03
      9.30232555e-03 0. 4.65116277e-03 0. 0. 2.32558139e-03 0. 0.
      1.62790697e-02 2.32558139e-03 0. 6.97674416e-03 0. 4.65116277e-03
      2.32558139e-03 0. 6.97674416e-03 2.32558139e-03 0. 0.
      2.32558139e-03 0. 0. 0. 0. 0. 4.65116277e-03 2.32558139e-03
      4.65116277e-03 4.65116277e-03 0. 1.16279069e-02 2.32558139e-03 0.
      4.65116277e-03 0. 6.97674416e-03 0. 0. 0. 0. 0. 0. 2.32558139e-03
      0. 2.32558139e-03 0. 0. 0. 0. 0. 0. 2.32558139e-03 0.
      2.32558139e-03 0. 0. 0. 0. 2.32558139e-03 0. 2.32558139e-03 0.
      6.97674416e-03 0. 2.32558139e-03 0. 0. 0. 4.65116277e-03
      4.65116277e-03 0. 0. 0. 0. 2.32558139e-03 2.32558139e-03 0. 0. 0.
      0. 2.32558139e-03 2.32558139e-03 0. 2.32558139e-03 2.32558139e-03
      0. 0. 6.97674416e-03 4.65116277e-03 2.32558139e-03 0. 0.
      4.65116277e-03 4.65116277e-03 0. 0. 2.32558139e-03 6.97674416e-03
      0. 0. 0. 2.32558139e-03 0. 4.65116277e-03 2.32558139e-03
      2.32558139e-03 2.32558139e-03 0. 2.32558139e-03 2.32558139e-03 0.
      0. 2.32558139e-03 0. 0. 2.32558139e-03 0. 0. 0. 0. 2.32558139e-03
      2.32558139e-03 0. 4.65116277e-03 0. 4.65116277e-03 2.32558139e-03
      0. 0. 2.32558139e-03 0. 2.32558139e-03 0. 0. 0. 4.65116277e-03 0.
      0. 0. 0. 0. 0. 4.65116277e-03 0. 4.65116277e-03 2.32558139e-03
      2.32558139e-03 0. 2.32558139e-03 0. 0. 0. 2.32558139e-03
      4.65116277e-03 0. 0. 2.32558139e-03 4.65116277e-03 0. 0.
      2.32558139e-03 6.97674416e-03 0. 2.32558139e-03 4.65116277e-03
      2.32558139e-03 0. 0. 0. 2.32558139e-03 0. 2.32558139e-03 0.
      4.65116277e-03 0. 2.32558139e-03 0. 4.65116277e-03 0. 0.
      2.32558139e-03 0. 2.32558139e-03 0. 0. 6.97674416e-03
      6.97674416e-03 2.32558139e-03 0. 0. 0. 0. 2.32558139e-03 0.
      4.65116277e-03 1.39534883e-02 9.30232555e-03 1.62790697e-02
      6.97674416e-03 2.32558139e-03 2.32558139e-03 2.32558139e-03 0.
      2.32558139e-03 0. 0. 4.65116277e-03 2.32558139e-03 0. 0.
      4.65116277e-03 0. 0. 2.32558139e-03 4.65116277e-03 0. 0. 0.
      6.97674416e-03 2.32558139e-03 0. 0. 0. 2.32558139e-03 0. 0. 0.
      2.32558139e-03 0. 0. 4.65116277e-03 0. 0. 0. 2.32558139e-03 0. 0.
      2.32558139e-03 2.32558139e-03 0. 0. 4.65116277e-03 0.
      4.65116277e-03 2.32558139e-03 6.97674416e-03 2.32558139e-03
      4.65116277e-03 0. 4.65116277e-03 0. 2.32558139e-03 2.32558139e-03
      4.65116277e-03 9.30232555e-03 0. 2.32558139e-03 4.65116277e-03
      2.32558139e-03 0. 0. 6.97674416e-03 9.30232555e-03 0.
      1.39534883e-02 0. 0. 4.65116277e-03 2.32558139e-03 2.32558139e-03
      0. 4.65116277e-03 2.32558139e-03 2.32558139e-03 0. 0.
      4.65116277e-03 2.32558139e-03 0. 2.32558139e-03 0. 0.
      4.65116277e-03 0. 4.65116277e-03 2.32558139e-03 6.97674416e-03 0.
      2.32558139e-03 2.32558139e-03 0. 4.65116277e-03 2.32558139e-03 0.
      2.32558139e-03 6.97674416e-03 0. 0. 0. 0. 0. 2.32558139e-03 0. 0.
      0. 2.32558139e-03 2.32558139e-03 0. 0. 2.32558139e-03
      2.32558139e-03 0. 0. 0. 0. 2.32558139e-03 2.32558139e-03
      4.65116277e-03 0. 2.32558139e-03 0. 0. 0. 2.32558139e-03
      2.32558139e-03 0. 2.32558139e-03 0. 0. 0. 2.32558139e-03 0.
      2.32558139e-03 0. 0. 2.32558139e-03 2.32558139e-03 0. 0.
      4.65116277e-03 6.97674416e-03 0. 2.32558139e-03 0. 0. 0.
      2.32558139e-03 2.32558139e-03 0. 0. 4.65116277e-03 0. 0. 0. 0. 0.
      2.32558139e-03 2.32558139e-03 4.65116277e-03 0. 4.65116277e-03
      4.65116277e-03 0. 0. 4.65116277e-03 1.16279069e-02 0.
      2.32558139e-03 0. 2.32558139e-03 0. 2.32558139e-03 4.65116277e-03
      0. 2.32558139e-03 0. 4.65116277e-03 0. 2.32558139e-03 0.
      2.32558139e-03 2.32558139e-03 6.97674416e-03 0. 0. 6.97674416e-03
      2.32558139e-03 2.32558139e-03 4.65116277e-03 2.32558139e-03
      2.32558139e-03 2.32558139e-03 6.97674416e-03 0. 4.65116277e-03
      6.97674416e-03 2.32558139e-03 2.32558139e-03 6.97674416e-03 0. 0.
      4.65116277e-03 0. 2.32558139e-03 4.65116277e-03 2.32558139e-03
      2.32558139e-03 4.65116277e-03 0. 0. 4.65116277e-03 2.32558139e-03
      0. 4.65116277e-03 0. 2.32558139e-03 2.32558139e-03 2.32558139e-03
      2.32558139e-03 4.65116277e-03 0. 0. 0. 0. 9.30232555e-03
      1.39534883e-02 0. 2.32558139e-03 2.32558139e-03 2.32558139e-03
      2.32558139e-03 0. 0. 0. 2.32558139e-03 0. 0. 0. 0. 0.
      1.16279069e-02</_>
    <_>
      0. 0. 2.55754474e-03 0. 0. 0. 0. 5.11508947e-03 0. 2.55754474e-03
      2.55754474e-03 0. 0. 2.55754474e-03 2.55754474e-03 5.11508947e-03
      1.53452689e-02 2.55754474e-03 0. 0. 5.11508947e-03 2.55754474e-03
      0. 5.11508947e-03 2.55754474e-03 5.11508947e-03 0. 0. 0. 0.
      2.55754474e-03 2.55754474e-03 0. 2.55754474e-03 2.55754474e-03 0.
      0. 0. 5.11508947e-03 0. 0. 0. 0. 1.53452689e-02 0. 0. 0.
      2.55754474e-03 0. 2.55754474e-03 0. 2.55754474e-03 0. 0. 0. 0. 0.
      0. 2.55754474e-03 0. 0. 0. 2.55754474e-03 0. 0. 0. 2.55754474e-03
      2.55754474e-03 2.55754474e-03 2.55754474e-03 0. 2.55754474e-03 0.
      0. 0. 0. 0. 2.55754474e-03 0. 2.55754474e-03 0. 0. 5.11508947e-03
      0. 0. 0. 0. 0. 2.55754474e-03 0. 0. 2.55754474e-03 5.11508947e-03
      0. 5.11508947e-03 0. 0. 0. 5.11508947e-03 0. 2.55754474e-03 0.
      1.27877239e-02 0. 0. 0. 0. 0. 0. 0. 0. 0. 0. 2.55754474e-03
      7.67263444e-03 0. 0. 5.11508947e-03 0. 2.55754474e-03 0.
      1.02301789e-02 1.02301789e-02 0. 0. 0. 2.55754474e-03
      2.55754474e-03 0. 0. 0. 2.55754474e-03 7.67263444e-03
      1.27877239e-02 0. 2.55754474e-03 2.55754474e-03 0. 0. 0. 0.
      2.55754474e-03 0. 0. 2.55754474e-03 0. 0. 2.55754474e-03 0.
      1.27877239e-02 2.55754474e-03 0. 2.55754474e-03 0. 2.55754474e-03
      1.02301789e-02 2.55754474e-03 5.11508947e-03 2.55754474e-03
      2.55754474e-03 0. 0. 0. 0. 0. 7.67263444e-03 0. 0. 0.
      5.11508947e-03 0. 0. 0. 1.27877239e-02 0. 2.55754474e-03 0. 0. 0.
      0. 1.02301789e-02 0. 0. 2.55754474e-03 2.55754474e-03 0. 0.
      2.55754474e-03 0. 7.67263444e-03 5.11508947e-03 0. 2.55754474e-03
      2.55754474e-03 2.55754474e-03 2.55754474e-03 5.11508947e-03
      2.55754474e-03 0. 1.02301789e-02 2.55754474e-03 0. 0. 0. 0. 0. 0.
      0. 5.11508947e-03 2.55754474e-03 1.79028139e-02 2.55754474e-03
      7.67263444e-03 0. 0. 0. 2.55754474e-03 0. 0. 0. 5.11508947e-03 0.
      7.67263444e-03 2.55754474e-03 1.27877239e-02 0. 7.67263444e-03 0.
      0. 0. 2.55754474e-03 2.55754474e-03 2.55754474e-03 0. 0.
      2.55754474e-03 0. 0. 2.55754474e-03 0. 2.55754474e-03
      5.11508947e-03 0. 0. 5.11508947e-03 0. 0. 0. 1.02301789e-02
      2.55754474e-03 0. 0. 5.11508947e-03 5.11508947e-03 5.11508947e-03
      0. 0. 0. 0. 2.55754474e-03 2.55754474e-03 0. 1.53452689e-02 0.
      2.55754474e-03 1.02301789e-02 0. 0. 2.55754474e-03 5.11508947e-03
      0. 5.11508947e-03 2.55754474e-03 0. 2.55754474e-03 2.55754474e-03
      0. 7.67263444e-03 2.55754474e-03 0. 2.55754474e-03 0. 0.
      5.11508947e-03 0. 0. 0. 2.55754474e-03 0. 0. 0. 5.11508947e-03
      1.53452689e-02 0. 5.11508947e-03 2.55754474e-03 0. 0. 0. 0. 0. 0.
      7.67263444e-03 0. 0. 0. 0. 0. 0. 0. 7.67263444e-03 0.
      2.55754474e-03 0. 0. 2.55754474e-03 0. 0. 1.02301789e-02
      1.02301789e-02 0. 0. 2.55754474e-03 2.55754474e-03 7.67263444e-03
      0. 2.55754474e-03 2.30179019e-02 0. 0. 0. 2.55754474e-03 0.
      1.02301789e-02 0. 0. 2.55754474e-03 0. 0. 2.55754474e-03 0.
      1.79028139e-02 0. 0. 2.55754474e-03 7.67263444e-03 0. 0. 0. 0. 0.
      0. 0. 0. 0. 0. 0. 0. 2.55754474e-03 2.55754474e-03 0. 0. 0.
      2.55754474e-03 0. 5.11508947e-03 1.02301789e-02 5.11508947e-03
      5.11508947e-03 0. 0. 0. 0. 0. 0. 2.55754474e-03 2.55754474e-03
      5.11508947e-03 5.11508947e-03 0. 1.02301789e-02 0. 0. 0.
      2.55754474e-03 2.55754474e-03 0. 0. 0. 5.11508947e-03 0. 0. 0.
      1.02301789e-02 0. 5.11508947e-03 0. 0. 5.11508947e-03
      2.55754474e-03 0. 0. 0. 2.55754474e-03 0. 5.11508947e-03 0. 0.
      2.55754474e-03 0. 0. 0. 0. 0. 7.67263444e-03 0. 5.11508947e-03
      5.11508947e-03 0. 2.55754474e-03 2.55754474e-03 0. 2.55754474e-03
      7.67263444e-03 0. 0. 5.11508947e-03 0. 2.55754474e-03 0. 0.
      5.11508947e-03 0. 7.67263444e-03 5.11508947e-03 5.11508947e-03 0.
      2.55754474e-03 5.11508947e-03 5.11508947e-03 5.11508947e-03 0. 0.
      0. 0. 0. 2.55754474e-03 0. 5.11508947e-03 0. 0. 0. 0.
      2.55754474e-03 0. 5.11508947e-03 2.55754474e-03 7.67263444e-03
      2.55754474e-03 2.55754474e-03 2.55754474e-03 5.11508947e-03 0.
      2.55754474e-03 0. 2.55754474e-03 5.11508947e-03 0. 0.
      2.55754474e-03 2.55754474e-03 0. 0. 0. 0. 0. 5.11508947e-03 0.
      2.55754474e-03 0. 0. 0. 2.55754474e-03 2.55754474e-03 0.
      2.55754474e-03 0. 0. 0. 0. 2.55754474e-03 0. 1.02301789e-02 0.
      2.55754474e-03 0. 0. 0. 0. 0.</_>
    <_>
      8.98876414e-03 2.24719103e-03 2.24719103e-03 6.74157310e-03
      2.24719103e-03 4.49438207e-03 2.24719103e-03 2.24719103e-03 0. 0.
      0. 4.49438207e-03 4.49438207e-03 0. 0. 0. 0. 0. 4.49438207e-03 0.
      2.24719103e-03 0. 6.74157310e-03 2.24719103e-03 6.74157310e-03 0.
      0. 0. 6.74157310e-03 0. 0. 0. 2.24719103e-03 0. 0. 0.
      8.98876414e-03 2.24719103e-03 2.24719103e-03 0. 2.24719103e-03 0.
      0. 1.12359552e-02 0. 2.24719103e-03 0. 0. 4.49438207e-03 0.
      4.49438207e-03 0. 0. 0. 0. 2.24719103e-03 0. 2.24719103e-03
      2.24719103e-03 0. 0. 0. 0. 2.24719103e-03 4.49438207e-03 0.
      2.24719103e-03 0. 2.24719103e-03 2.24719103e-03 0. 0. 0.
      2.24719103e-03 0. 4.49438207e-03 0. 4.49438207e-03 0. 0. 0. 0. 0.
      0. 2.24719103e-03 2.24719103e-03 0. 0. 0. 2.24719103e-03 0. 0.
      1.12359552e-02 0. 0. 4.49438207e-03 4.49438207e-03 0. 0. 0. 0. 0.
      0. 0. 2.24719103e-03 0. 8.98876414e-03 0. 0. 2.24719103e-03 0. 0.
      0. 2.24719103e-03 2.24719103e-03 0. 2.24719103e-03 0.
      4.49438207e-03 2.24719103e-03 2.24719103e-03 4.49438207e-03
      2.24719103e-03 0. 0. 0. 2.24719103e-03 0. 4.49438207e-03 0.
      4.49438207e-03 0. 0. 2.24719103e-03 1.12359552e-02 4.49438207e-03
      0. 0. 0. 0. 2.24719103e-03 0. 2.24719103e-03 2.24719103e-03
      2.24719103e-03 4.49438207e-03 2.24719103e-03 2.24719103e-03
      2.24719103e-03 0. 0. 4.49438207e-03 4.49438207e-03 0. 0.
      1.12359552e-02 0. 0. 6.74157310e-03 6.74157310e-03 2.24719103e-03
      4.49438207e-03 1.34831462e-02 0. 0. 0. 0. 6.74157310e-03 0.
      2.24719103e-03 2.24719103e-03 2.24719103e-03 0. 2.24719103e-03
      6.74157310e-03 2.24719103e-03 0. 4.49438207e-03 6.74157310e-03
      2.24719103e-03 4.49438207e-03 0. 2.24719103e-03 0. 0. 0.
      6.74157310e-03 0. 0. 0. 0. 0. 4.49438207e-03 0. 6.74157310e-03 0.
      0. 2.24719103e-03 0. 0. 0. 4.49438207e-03 2.24719103e-03
      2.24719103e-03 0. 0. 4.49438207e-03 2.24719103e-03 1.12359552e-02
      0. 0. 0. 0. 2.24719103e-03 0. 0. 2.24719103e-03 2.24719103e-03 0.
      0. 0. 2.24719103e-03 0. 2.24719103e-03 0. 0. 2.24719103e-03
      4.49438207e-03 0. 2.24719103e-03 0. 2.24719103e-03 1.79775283e-02
      0. 6.74157310e-03 0. 0. 6.74157310e-03 0. 0. 0. 2.24719103e-03 0.
      0. 0. 2.24719103e-03 0. 2.24719103e-03 0. 2.24719103e-03
      2.24719103e-03 0. 2.24719103e-03 2.24719103e-03 0. 6.74157310e-03
      2.24719103e-03 2.24719103e-03 2.24719103e-03 2.24719103e-03
      6.74157310e-03 0. 2.24719103e-03 4.49438207e-03 2.24719103e-03
      2.24719103e-03 2.24719103e-03 0. 2.24719103e-03 0. 0.
      4.49438207e-03 0. 0. 6.74157310e-03 0. 2.24719103e-03
      2.24719103e-03 2.24719103e-03 2.24719103e-03 4.49438207e-03 0.
      6.74157310e-03 6.74157310e-03 2.24719103e-03 2.24719103e-03
      2.24719103e-03 2.24719103e-03 0. 0. 0. 2.24719103e-03
      2.24719103e-03 0. 0. 4.49438207e-03 2.24719103e-03 2.24719103e-03
      0. 2.24719103e-03 6.74157310e-03 4.49438207e-03 6.74157310e-03 0.
      4.49438207e-03 0. 4.49438207e-03 1.34831462e-02 4.49438207e-03 0.
      0. 0. 0. 2.24719103e-03 8.98876414e-03 2.24719103e-03 0.
      2.24719103e-03 4.49438207e-03 0. 0. 0. 2.24719103e-03 0.
      8.98876414e-03 0. 2.24719103e-03 4.49438207e-03 0. 2.24719103e-03
      0. 0. 0. 2.24719103e-03 0. 4.49438207e-03 0. 0. 0. 0. 0. 0. 0.
      4.49438207e-03 0. 6.74157310e-03 6.74157310e-03 2.24719103e-03
      1.12359552e-02 0. 0. 2.24719103e-03 2.24719103e-03 0.
      2.24719103e-03 4.49438207e-03 1.12359552e-02 0. 2.24719103e-03
      2.24719103e-03 4.49438207e-03 0. 2.24719103e-03 2.24719103e-03
      6.74157310e-03 6.74157310e-03 4.49438207e-03 0. 0. 0. 0. 0.
      4.49438207e-03 0. 0. 4.49438207e-03 1.12359552e-02 1.12359552e-02
      2.24719103e-03 0. 0. 2.24719103e-03 0. 4.49438207e-03 0. 0.
      6.74157310e-03 0. 2.24719103e-03 1.34831462e-02 0. 0.
      4.49438207e-03 2.24719103e-03 0. 0. 0. 0. 0. 6.74157310e-03
      1.12359552e-02 2.24719103e-03 0. 0. 0. 6.74157310e-03
      2.24719103e-03 0. 0. 6.74157310e-03 2.24719103e-03 0. 0. 0.
      6.74157310e-03 0. 0. 0. 0. 0. 0. 2.24719103e-03 0. 2.24719103e-03
      2.24719103e-03 2.24719103e-03 4.49438207e-03 0. 8.98876414e-03 0.
      1.34831462e-02 2.24719103e-03 0. 0. 4.49438207e-03 2.24719103e-03
      0. 2.24719103e-03 0. 2.24719103e-03 2.24719103e-03 2.24719103e-03
      0. 0. 1.34831462e-02 2.24719103e-03 0. 0. 0. 2.24719103e-03 0. 0.
      0. 6.74157310e-03 6.74157310e-03 0. 0. 0. 0. 2.24719103e-03
      2.24719103e-03 4.49438207e-03 2.24719103e-03 0. 2.24719103e-03
      4.49438207e-03 0. 2.24719103e-03 0. 0. 0. 0. 0. 0. 2.24719103e-03
      4.49438207e-03 0. 0. 0. 0. 2.24719103e-03 0. 0. 0. 0.
      6.74157310e-03 2.24719103e-03 0. 0. 0. 6.74157310e-03
      6.74157310e-03 0. 0. 0. 0. 0. 0. 0. 0.</_>
    <_>
      2.39808159e-03 0. 0. 0. 9.59232636e-03 0. 2.39808159e-03
      4.79616318e-03 0. 4.79616318e-03 0. 2.39808159e-03 2.39808159e-03
      0. 1.43884895e-02 0. 0. 2.39808159e-03 0. 0. 0. 0. 0.
      2.39808159e-03 1.19904075e-02 0. 0. 0. 0. 0. 2.39808159e-03
      4.79616318e-03 0. 7.19424477e-03 0. 0. 0. 0. 0. 0. 0. 0.
      2.39808159e-03 2.39808159e-03 0. 0. 4.79616318e-03 0. 0. 0. 0.
      4.79616318e-03 0. 4.79616318e-03 0. 0. 0. 2.39808159e-03
      2.39808159e-03 0. 0. 0. 0. 2.39808159e-03 0. 2.39808159e-03 0. 0.
      0. 0. 9.59232636e-03 0. 0. 4.79616318e-03 2.39808159e-03 0. 0.
      4.79616318e-03 0. 2.39808159e-03 4.79616318e-03 0. 7.19424477e-03
      0. 0. 4.79616318e-03 0. 4.79616318e-03 0. 0. 0. 0. 2.39808159e-03
      4.79616318e-03 2.39808159e-03 0. 2.39808159e-03 0. 2.39808159e-03
      2.39808159e-03 4.79616318e-03 4.79616318e-03 2.39808159e-03
      2.39808159e-03 4.79616318e-03 4.79616318e-03 0. 0. 4.79616318e-03
      4.79616318e-03 2.39808159e-03 2.39808159e-03 0. 0. 7.19424477e-03
      0. 0. 4.79616318e-03 0. 0. 0. 2.39808159e-03 0. 0. 0. 0. 0.
      2.39808159e-03 0. 0. 2.39808159e-03 2.39808159e-03 2.39808159e-03
      2.39808159e-03 0. 0. 2.39808159e-03 0. 0. 4.79616318e-03 0.
      7.19424477e-03 0. 0. 0. 0. 0. 2.39808159e-03 7.19424477e-03
      4.79616318e-03 0. 2.39808159e-03 4.79616318e-03 4.79616318e-03
      2.39808159e-03 2.39808159e-03 1.19904075e-02 0. 0. 7.19424477e-03
      0. 0. 4.79616318e-03 0. 0. 0. 0. 9.59232636e-03 0. 2.39808159e-03
      7.19424477e-03 2.39808159e-03 0. 2.39808159e-03 4.79616318e-03 0.
      0. 0. 7.19424477e-03 0. 0. 0. 2.39808159e-03 0. 0. 4.79616318e-03
      0. 0. 4.79616318e-03 0. 0. 0. 2.39808159e-03 0. 4.79616318e-03 0.
      9.59232636e-03 0. 0. 0. 0. 0. 0. 7.19424477e-03 7.19424477e-03 0.
      2.39808159e-03 0. 1.19904075e-02 2.39808159e-03 1.19904075e-02
      4.79616318e-03 0. 2.39808159e-03 0. 0. 0. 0. 4.79616318e-03
      2.39808159e-03 0. 0. 4.79616318e-03 4.79616318e-03 4.79616318e-03
      0. 0. 0. 2.39808159e-03 2.39808159e-03 0. 0. 0. 2.39808159e-03 0.
      2.39808159e-03 1.43884895e-02 4.79616318e-03 0. 0. 4.79616318e-03
      0. 0. 1.19904075e-02 1.43884895e-02 0. 0. 2.39808159e-03
      2.39808159e-03 0. 0. 2.39808159e-03 0. 0. 7.19424477e-03 0. 0. 0.
      0. 7.19424477e-03 9.59232636e-03 0. 2.39808159e-03 2.39808159e-03
      0. 0. 4.79616318e-03 7.19424477e-03 4.79616318e-03 2.39808159e-03
      0. 0. 4.79616318e-03 0. 2.39808159e-03 0. 2.39808159e-03 0.
      2.39808159e-03 4.79616318e-03 0. 2.39808159e-03 0. 0.
      2.39808159e-03 0. 4.79616318e-03 2.39808159e-03 0. 0.
      2.39808159e-03 0. 0. 2.39808159e-03 9.59232636e-03 0. 0. 0. 0. 0.
      0. 0. 0. 0. 0. 2.39808159e-03 2.39808159e-03 0. 7.19424477e-03
      2.39808159e-03 9.59232636e-03 2.39808159e-03 0. 0. 0.
      7.19424477e-03 4.79616318e-03 0. 0. 7.19424477e-03 0. 0. 0.
      7.19424477e-03 2.39808159e-03 0. 0. 1.19904075e-02 0. 0. 0. 0. 0.
      0. 0. 0. 4.79616318e-03 9.59232636e-03 0. 4.79616318e-03
      4.79616318e-03 0. 0. 7.19424477e-03 2.39808159e-03 0. 0.
      2.39808159e-03 0. 0. 4.79616318e-03 4.79616318e-03 0.
      1.19904075e-02 0. 0. 2.39808159e-03 2.39808159e-03 4.79616318e-03
      1.67865716e-02 4.79616318e-03 0. 7.19424477e-03 9.59232636e-03
      7.19424477e-03 2.39808159e-03 4.79616318e-03 2.39808159e-03 0. 0.
      0. 0. 7.19424477e-03 0. 0. 2.39808159e-03 0. 0. 4.79616318e-03 0.
      0. 0. 2.39808159e-03 0. 0. 0. 0. 0. 0. 0. 2.39808159e-03
      1.19904075e-02 0. 0. 4.79616318e-03 2.39808159e-03 0.
      2.39808159e-03 0. 2.39808159e-03 2.39808159e-03 2.39808159e-03
      4.79616318e-03 0. 0. 0. 2.39808159e-03 0. 0. 0. 0. 0.
      2.39808159e-03 0. 0. 0. 0. 2.39808159e-03 0. 1.43884895e-02 0. 0.
      2.39808159e-03 9.59232636e-03 7.19424477e-03 0. 0. 2.39808159e-03
      0. 0. 2.39808159e-03 4.79616318e-03 0. 0. 0. 0. 0. 0.
      1.91846527e-02 0. 0. 7.19424477e-03 0. 0. 0. 0. 2.39808159e-03 0.
      7.19424477e-03 0. 7.19424477e-03 0. 0. 2.39808159e-03 0. 0. 0.
      1.19904075e-02 0. 0. 0. 0. 9.59232636e-03 0. 0. 4.79616318e-03 0.
      0. 0. 0. 2.39808159e-03 0. 0. 2.39808159e-03 2.39808159e-03
      7.19424477e-03 2.39808159e-03 0. 0. 2.39808159e-03 0. 0. 0. 0. 0.
      2.39808159e-03 0. 0. 0. 0. 2.39808159e-03 7.19424477e-03
      2.39808159e-03 0. 0. 0. 2.39808159e-03 4.79616318e-03 0. 0.</_>
    <_>
      2.41545890e-03 0. 2.41545890e-03 4.83091781e-03 2.41545890e-03
      2.41545890e-03 7.24637695e-03 0. 2.41545890e-03 2.41545890e-03 0.
      0. 0. 0. 0. 0. 2.41545890e-03 2.41545890e-03 7.24637695e-03
      2.41545890e-03 0. 0. 7.24637695e-03 2.41545890e-03 4.83091781e-03
      2.41545890e-03 2.41545890e-03 0. 7.24637695e-03 0. 2.41545890e-03
      1.20772943e-02 4.83091781e-03 2.41545890e-03 4.83091781e-03 0. 0.
      2.41545890e-03 2.41545890e-03 4.83091781e-03 0. 2.41545890e-03
      7.24637695e-03 2.41545890e-03 4.83091781e-03 0. 0. 0. 0.
      1.44927539e-02 0. 9.66183562e-03 0. 7.24637695e-03 2.41545890e-03
      0. 0. 2.41545890e-03 0. 0. 2.41545890e-03 0. 2.41545890e-03
      2.41545890e-03 0. 0. 0. 2.41545890e-03 0. 0. 4.83091781e-03 0. 0.
      0. 0. 0. 0. 0. 0. 0. 0. 0. 0. 0. 0. 0. 0. 0. 0. 2.41545890e-03 0.
      0. 7.24637695e-03 0. 0. 0. 4.83091781e-03 4.83091781e-03
      4.83091781e-03 0. 2.41545890e-03 2.41545890e-03 0. 0. 0. 0. 0.
      2.41545890e-03 2.41545890e-03 0. 0. 0. 0. 2.41545890e-03
      2.41545890e-03 2.41545890e-03 2.41545890e-03 4.83091781e-03 0. 0.
      2.41545890e-03 0. 0. 4.83091781e-03 0. 0. 2.41545890e-03
      2.41545890e-03 2.41545890e-03 2.41545890e-03 0. 2.41545890e-03 0.
      0. 0. 0. 4.83091781e-03 0. 0. 0. 2.41545890e-03 0. 0. 0. 0. 0. 0.
      4.83091781e-03 2.41545890e-03 2.41545890e-03 0. 0. 2.41545890e-03
      0. 2.41545890e-03 2.41545890e-03 0. 0. 0. 4.83091781e-03 0.
      2.41545890e-03 0. 0. 2.41545890e-03 0. 0. 0. 0. 9.66183562e-03 0.
      1.44927539e-02 0. 0. 0. 7.24637695e-03 7.24637695e-03 0. 0. 0. 0.
      0. 0. 0. 0. 0. 0. 0. 2.41545890e-03 0. 2.41545890e-03 0.
      2.41545890e-03 2.41545890e-03 2.41545890e-03 2.41545890e-03 0.
      4.83091781e-03 0. 0. 0. 0. 7.24637695e-03 0. 0. 2.41545890e-03 0.
      0. 9.66183562e-03 4.83091781e-03 4.83091781e-03 2.41545890e-03
      7.24637695e-03 7.24637695e-03 2.41545890e-03 2.41545890e-03 0. 0.
      0. 2.41545890e-03 0. 0. 2.41545890e-03 2.41545890e-03 0. 0. 0. 0.
      2.41545890e-03 2.41545890e-03 7.24637695e-03 7.24637695e-03
      4.83091781e-03 2.41545890e-03 0. 2.41545890e-03 7.24637695e-03
      4.83091781e-03 0. 0. 4.83091781e-03 7.24637695e-03 0.
      4.83091781e-03 2.41545890e-03 2.41545890e-03 2.41545890e-03
      2.41545890e-03 0. 0. 0. 0. 4.83091781e-03 2.41545890e-03
      7.24637695e-03 2.41545890e-03 0. 0. 0. 4.83091781e-03
      2.41545890e-03 0. 0. 2.41545890e-03 2.41545890e-03 0. 0. 0.
      9.66183562e-03 2.41545890e-03 2.41545890e-03 0. 4.83091781e-03
      1.69082116e-02 2.41545890e-03 2.41545890e-03 0. 4.83091781e-03 0.
      1.69082116e-02 0. 2.41545890e-03 0. 0. 4.83091781e-03
      4.83091781e-03 1.20772943e-02 0. 4.83091781e-03 4.83091781e-03 0.
      2.41545890e-03 0. 0. 4.83091781e-03 1.20772943e-02 2.41545890e-03
      0. 0. 0. 4.83091781e-03 0. 0. 0. 0. 0. 0. 0. 2.41545890e-03 0. 0.
      0. 2.41545890e-03 0. 0. 2.41545890e-03 2.41545890e-03
      2.41545890e-03 0. 0. 0. 0. 0. 4.83091781e-03 2.41545890e-03 0.
      2.41545890e-03 4.83091781e-03 4.83091781e-03 2.41545890e-03 0. 0.
      0. 2.41545890e-03 4.83091781e-03 0. 7.24637695e-03 2.41545890e-03
      0. 2.41545890e-03 0. 7.24637695e-03 0. 9.66183562e-03 0.
      7.24637695e-03 0. 0. 0. 4.83091781e-03 0. 0. 0. 2.41545890e-03 0.
      0. 2.41545890e-03 0. 7.24637695e-03 4.83091781e-03 0. 0.
      4.83091781e-03 0. 2.41545890e-03 7.24637695e-03 0. 9.66183562e-03
      2.41545890e-03 0. 0. 0. 4.83091781e-03 7.24637695e-03 0.
      2.41545890e-03 0. 0. 1.44927539e-02 0. 0. 0. 2.41545890e-03 0. 0.
      2.41545890e-03 0. 0. 0. 0. 0. 2.41545890e-03 0. 0. 4.83091781e-03
      1.20772943e-02 0. 0. 4.83091781e-03 2.41545890e-03 0. 0. 0. 0. 0.
      0. 0. 0. 4.83091781e-03 0. 0. 0. 2.41545890e-03 0. 9.66183562e-03
      0. 0. 4.83091781e-03 0. 9.66183562e-03 2.41545890e-03
      2.41545890e-03 2.41545890e-03 0. 0. 0. 0. 2.41545890e-03 0. 0. 0.
      0. 4.83091781e-03 0. 2.41545890e-03 4.83091781e-03 7.24637695e-03
      0. 2.41545890e-03 1.20772943e-02 0. 2.41545890e-03 0. 0.
      2.41545890e-03 2.41545890e-03 2.41545890e-03 2.41545890e-03
      2.41545890e-03 0. 0. 0. 0. 7.24637695e-03 0. 0. 4.83091781e-03
      4.83091781e-03 0. 0. 2.41545890e-03 0. 1.44927539e-02 0.
      2.41545890e-03 0. 0. 0. 2.41545890e-03 4.83091781e-03
      2.41545890e-03 0. 0. 7.24637695e-03 2.41545890e-03 0.
      2.41545890e-03 0. 2.41545890e-03 4.83091781e-03 2.41545890e-03
      2.41545890e-03 7.24637695e-03 2.41545890e-03 0. 9.66183562e-03
      2.41545890e-03 0. 7.24637695e-03 4.83091781e-03 2.41545890e-03
      2.41545890e-03 2.41545890e-03 2.41545890e-03 0. 0. 0.
      2.41545890e-03 0. 0.</_>
    <_>
      9.06344410e-03 0. 3.02114803e-03 3.02114803e-03 3.02114803e-03 0.
      6.04229607e-03 0. 0. 0. 0. 3.02114803e-03 3.02114803e-03 0. 0.
      3.02114803e-03 0. 0. 0. 0. 0. 9.06344410e-03 3.02114803e-03 0. 0.
      0. 0. 3.02114803e-03 0. 0. 3.02114803e-03 0. 0. 0. 1.51057402e-02
      0. 1.51057402e-02 0. 0. 3.02114803e-03 0. 6.04229607e-03
      3.02114803e-03 9.06344410e-03 0. 0. 0. 6.04229607e-03 0. 0. 0. 0.
      0. 3.02114803e-03 3.02114803e-03 3.02114803e-03 3.02114803e-03 0.
      1.20845921e-02 0. 3.02114803e-03 0. 6.04229607e-03 3.02114803e-03
      3.02114803e-03 0. 0. 3.02114803e-03 0. 3.02114803e-03
      3.02114803e-03 6.04229607e-03 6.04229607e-03 0. 3.02114803e-03 0.
      0. 1.51057402e-02 0. 9.06344410e-03 0. 9.06344410e-03 0.
      3.02114803e-03 3.02114803e-03 0. 0. 0. 0. 3.02114803e-03 0. 0.
      1.20845921e-02 0. 0. 0. 0. 1.51057402e-02 3.02114803e-03
      3.02114803e-03 0. 0. 3.02114803e-03 0. 3.02114803e-03 0. 0. 0. 0.
      0. 0. 3.02114803e-03 3.02114803e-03 3.02114803e-03 3.02114803e-03
      3.02114803e-03 3.02114803e-03 0. 3.02114803e-03 0. 0.
      3.02114803e-03 3.02114803e-03 0. 0. 0. 0. 0. 0. 0. 3.02114803e-03
      0. 0. 6.04229607e-03 0. 0. 3.02114803e-03 6.04229607e-03 0. 0. 0.
      3.02114803e-03 0. 3.02114803e-03 3.02114803e-03 0. 0. 0.
      3.02114803e-03 3.02114803e-03 0. 1.20845921e-02 6.04229607e-03
      3.02114803e-03 3.02114803e-03 0. 0. 0. 6.04229607e-03 0.
      3.02114803e-03 1.20845921e-02 0. 0. 0. 0. 0. 3.02114803e-03 0.
      6.04229607e-03 0. 0. 6.04229607e-03 0. 3.02114803e-03 0. 0.
      6.04229607e-03 6.04229607e-03 0. 6.04229607e-03 0. 0.
      3.02114803e-03 0. 0. 0. 6.04229607e-03 0. 9.06344410e-03 0. 0. 0.
      0. 0. 0. 3.02114803e-03 3.02114803e-03 2.11480372e-02
      3.02114803e-03 0. 0. 0. 0. 6.04229607e-03 6.04229607e-03
      6.04229607e-03 0. 0. 0. 6.04229607e-03 0. 0. 0. 0. 0. 0. 0. 0.
      3.02114803e-03 0. 3.02114803e-03 0. 3.02114803e-03 3.02114803e-03
      0. 6.04229607e-03 0. 0. 0. 0. 0. 0. 0. 0. 0. 3.02114803e-03 0. 0.
      3.02114803e-03 0. 3.02114803e-03 1.20845921e-02 0. 0. 0. 0.
      3.02114803e-03 0. 3.02114803e-03 3.02114803e-03 0. 0. 0. 0. 0.
      6.04229607e-03 9.06344410e-03 9.06344410e-03 0. 6.04229607e-03 0.
      0. 0. 3.02114803e-03 9.06344410e-03 3.02114803e-03 3.02114803e-03
      0. 9.06344410e-03 3.02114803e-03 0. 6.04229607e-03 0.
      1.20845921e-02 0. 3.02114803e-03 0. 3.02114803e-03 0.
      3.02114803e-03 0. 0. 0. 3.02114803e-03 3.02114803e-03 0.
      3.02114803e-03 3.02114803e-03 0. 3.02114803e-03 9.06344410e-03
      3.02114803e-03 0. 6.04229607e-03 9.06344410e-03 6.04229607e-03 0.
      0. 0. 0. 0. 6.04229607e-03 0. 6.04229607e-03 0. 0. 0. 0. 0.
      3.02114803e-03 3.02114803e-03 0. 3.02114803e-03 3.02114803e-03
      3.02114803e-03 0. 3.02114803e-03 0. 0. 0. 0. 6.04229607e-03 0.
      9.06344410e-03 0. 3.02114803e-03 0. 0. 3.02114803e-03 0. 0.
      3.02114803e-03 0. 0. 0. 0. 0. 6.04229607e-03 0. 0. 1.51057402e-02
      0. 0. 0. 0. 3.02114803e-03 0. 0. 0. 9.06344410e-03 0.
      9.06344410e-03 0. 0. 0. 0. 6.04229607e-03 0. 3.02114803e-03
      3.02114803e-03 0. 0. 0. 3.02114803e-03 1.81268882e-02
      1.20845921e-02 0. 3.02114803e-03 0. 0. 3.02114803e-03 0. 0. 0. 0.
      0. 0. 0. 6.04229607e-03 0. 0. 0. 6.04229607e-03 3.02114803e-03
      3.02114803e-03 0. 0. 3.02114803e-03 6.04229607e-03 0. 0. 0.
      1.51057402e-02 6.04229607e-03 0. 0. 0. 0. 0. 0. 0. 0. 0.
      3.02114803e-03 6.04229607e-03 3.02114803e-03 3.02114803e-03 0.
      3.02114803e-03 0. 0. 0. 0. 0. 0. 0. 3.02114803e-03 9.06344410e-03
      0. 0. 0. 3.02114803e-03 3.02114803e-03 3.02114803e-03
      3.02114803e-03 0. 0. 6.04229607e-03 0. 3.02114803e-03 0.
      3.02114803e-03 3.02114803e-03 9.06344410e-03 0. 0. 0.
      3.02114803e-03 0. 6.04229607e-03 0. 0. 0. 3.02114803e-03
      3.02114803e-03 0. 0. 0. 3.02114803e-03 0. 0. 0. 0. 3.02114803e-03
      0. 3.02114803e-03 3.02114803e-03 3.02114803e-03 3.02114803e-03 0.
      3.02114803e-03 0. 0. 0. 0. 3.02114803e-03 3.02114803e-03 0. 0. 0.
      0. 9.06344410e-03 0. 0. 9.06344410e-03 0. 0. 6.04229607e-03
      6.04229607e-03 0. 0. 0. 3.02114803e-03 3.02114803e-03 0. 0.
      3.02114803e-03 0. 0. 0. 0. 0. 0. 0. 0. 3.02114803e-03 0. 0. 0.</_>
    <_>
      0. 2.40963860e-03 4.81927721e-03 2.40963860e-03 0. 0.
      2.40963860e-03 2.40963860e-03 0. 2.40963860e-03 0. 0.
      4.81927721e-03 4.81927721e-03 2.40963860e-03 0. 0. 2.40963860e-03
      2.40963860e-03 2.40963860e-03 0. 0. 0. 0. 0. 4.81927721e-03 0. 0.
      0. 0. 0. 0. 0. 0. 7.22891558e-03 2.89156623e-02 0. 2.40963860e-03
      0. 0. 0. 7.22891558e-03 0. 0. 0. 0. 0. 0. 0. 0. 2.40963860e-03
      2.40963860e-03 4.81927721e-03 2.40963860e-03 2.40963860e-03
      2.40963860e-03 2.40963860e-03 0. 0. 0. 2.40963860e-03 0.
      1.68674700e-02 0. 0. 0. 0. 0. 0. 0. 2.40963860e-03 0.
      2.40963860e-03 0. 2.40963860e-03 0. 2.40963860e-03 2.40963860e-03
      2.40963860e-03 2.40963860e-03 0. 0. 2.40963860e-03 4.81927721e-03
      2.40963860e-03 2.40963860e-03 0. 4.81927721e-03 2.40963860e-03
      2.40963860e-03 2.40963860e-03 4.81927721e-03 1.92771088e-02
      2.40963860e-03 0. 2.40963860e-03 0. 0. 2.40963860e-03
      2.40963860e-03 0. 2.40963860e-03 9.63855442e-03 2.40963860e-03 0.
      0. 0. 0. 2.40963860e-03 0. 2.40963860e-03 0. 0. 9.63855442e-03 0.
      0. 0. 0. 0. 4.81927721e-03 2.40963860e-03 2.40963860e-03
      4.81927721e-03 0. 0. 0. 0. 7.22891558e-03 7.22891558e-03
      2.40963860e-03 0. 0. 9.63855442e-03 0. 0. 0. 2.40963860e-03
      2.40963860e-03 2.40963860e-03 0. 7.22891558e-03 7.22891558e-03
      2.40963860e-03 4.81927721e-03 0. 2.40963860e-03 4.81927721e-03
      4.81927721e-03 2.40963860e-03 2.40963860e-03 4.81927721e-03 0.
      1.44578312e-02 4.81927721e-03 7.22891558e-03 0. 2.40963860e-03 0.
      0. 7.22891558e-03 0. 0. 4.81927721e-03 0. 2.40963860e-03 0.
      2.40963860e-03 0. 0. 4.81927721e-03 0. 0. 4.81927721e-03
      2.40963860e-03 4.81927721e-03 0. 0. 2.40963860e-03 0.
      4.81927721e-03 0. 0. 0. 2.40963860e-03 2.40963860e-03
      2.40963860e-03 2.40963860e-03 0. 0. 0. 0. 2.40963860e-03
      2.40963860e-03 0. 0. 0. 0. 2.40963860e-03 0. 7.22891558e-03
      2.40963860e-03 0. 0. 0. 2.40963860e-03 0. 0. 0. 2.40963860e-03
      2.40963860e-03 2.40963860e-03 0. 9.63855442e-03 0. 2.40963860e-03
      0. 2.40963860e-03 0. 0. 0. 0. 0. 2.40963860e-03 0. 0. 0.
      7.22891558e-03 2.40963860e-03 2.40963860e-03 0. 0. 0. 0. 0. 0. 0.
      2.40963860e-03 0. 0. 4.81927721e-03 2.40963860e-03 0.
      2.40963860e-03 2.40963860e-03 2.40963860e-03 9.63855442e-03 0.
      2.40963860e-03 0. 2.40963860e-03 2.40963860e-03 7.22891558e-03
      2.40963860e-03 2.40963860e-03 2.40963860e-03 4.81927721e-03 0.
      1.44578312e-02 4.81927721e-03 2.40963860e-03 0. 4.81927721e-03
      7.22891558e-03 2.40963860e-03 4.81927721e-03 0. 2.40963860e-03
      2.40963860e-03 0. 4.81927721e-03 0. 4.81927721e-03 0. 0. 0. 0.
      2.40963860e-03 0. 0. 0. 4.81927721e-03 0. 4.81927721e-03 0. 0.
      2.40963860e-03 0. 0. 0. 4.81927721e-03 2.40963860e-03
      2.40963860e-03 2.40963860e-03 0. 7.22891558e-03 0. 2.40963860e-03
      0. 0. 9.63855442e-03 4.81927721e-03 0. 2.40963860e-03
      2.40963860e-03 2.40963860e-03 2.40963860e-03 0. 2.40963860e-03 0.
      0. 0. 2.40963860e-03 0. 2.40963860e-03 0. 0. 0. 0. 4.81927721e-03
      2.40963860e-03 0. 2.40963860e-03 0. 0. 4.81927721e-03
      2.40963860e-03 1.20481923e-02 0. 0. 4.81927721e-03 0. 0. 0. 0.
      2.40963860e-03 4.81927721e-03 0. 0. 0. 2.40963860e-03 0.
      2.40963860e-03 2.40963860e-03 0. 0. 4.81927721e-03 0. 0. 0.
      2.40963860e-03 2.40963860e-03 0. 2.40963860e-03 4.81927721e-03
      2.40963860e-03 0. 0. 0. 4.81927721e-03 2.40963860e-03
      2.40963860e-03 0. 4.81927721e-03 2.40963860e-03 2.40963860e-03
      2.40963860e-03 7.22891558e-03 0. 2.40963860e-03 0. 7.22891558e-03
      0. 2.40963860e-03 0. 0. 9.63855442e-03 0. 2.89156623e-02
      2.40963860e-03 7.22891558e-03 1.92771088e-02 0. 2.40963860e-03
      2.40963860e-03 0. 0. 0. 0. 0. 4.81927721e-03 0. 0. 4.81927721e-03
      4.81927721e-03 7.22891558e-03 0. 2.40963860e-03 0. 4.81927721e-03
      2.40963860e-03 0. 0. 0. 0. 0. 4.81927721e-03 0. 0. 0.
      9.63855442e-03 0. 0. 0. 7.22891558e-03 0. 2.40963860e-03
      2.40963860e-03 0. 2.40963860e-03 4.81927721e-03 2.40963860e-03
      2.40963860e-03 2.40963860e-03 7.22891558e-03 0. 2.40963860e-03 0.
      0. 0. 0. 0. 2.40963860e-03 2.40963860e-03 0. 0. 0. 0. 0. 0. 0.
      2.40963860e-03 0. 2.40963860e-03 2.40963860e-03 7.22891558e-03 0.
      0. 0. 0. 0. 2.40963860e-03 7.22891558e-03 0. 0. 2.40963860e-03
      4.81927721e-03 0. 0. 2.40963860e-03 0. 0. 4.81927721e-03 0. 0.
      2.40963860e-03 2.40963860e-03 2.40963860e-03 0. 0. 0.
      4.81927721e-03 0. 0. 2.40963860e-03 2.40963860e-03 4.81927721e-03
      2.40963860e-03 2.40963860e-03 2.40963860e-03 4.81927721e-03 0.
      4.81927721e-03 0. 2.40963860e-03 2.40963860e-03 0. 2.40963860e-03
      4.81927721e-03 0. 0. 0. 0. 0. 0. 1.20481923e-02 0. 0. 0. 0. 0.</_>
    <_>
      4.71698120e-03 2.35849060e-03 2.35849060e-03 2.35849060e-03
      4.71698120e-03 2.35849060e-03 0. 4.71698120e-03 0. 0. 0.
      2.35849060e-03 1.17924530e-02 0. 4.71698120e-03 0. 0. 0.
      2.35849060e-03 4.71698120e-03 0. 2.35849060e-03 0. 0.
      2.35849060e-03 0. 2.35849060e-03 0. 2.35849060e-03 0. 0. 0. 0.
      4.71698120e-03 9.43396240e-03 7.07547180e-03 0. 0. 0. 0. 0.
      7.07547180e-03 2.35849060e-03 0. 2.35849060e-03 0. 2.35849060e-03
      0. 2.35849060e-03 7.07547180e-03 0. 0. 2.35849060e-03
      2.35849060e-03 0. 2.35849060e-03 7.07547180e-03 0. 2.35849060e-03
      4.71698120e-03 0. 2.35849060e-03 2.35849060e-03 4.71698120e-03 0.
      2.35849060e-03 0. 0. 0. 2.35849060e-03 0. 0. 0. 0. 0.
      2.35849060e-03 2.35849060e-03 7.07547180e-03 0. 4.71698120e-03
      7.07547180e-03 0. 0. 0. 0. 0. 4.71698120e-03 4.71698120e-03
      2.35849060e-03 0. 0. 2.35849060e-03 0. 0. 0. 0. 0. 2.35849060e-03
      4.71698120e-03 4.71698120e-03 2.35849060e-03 0. 2.35849060e-03 0.
      0. 4.71698120e-03 0. 0. 4.71698120e-03 2.35849060e-03 0.
      2.35849060e-03 0. 0. 1.65094342e-02 2.35849060e-03 0. 0.
      2.35849060e-03 2.35849060e-03 0. 2.35849060e-03 9.43396240e-03
      9.43396240e-03 0. 0. 0. 2.35849060e-03 0. 2.35849060e-03 0.
      7.07547180e-03 2.35849060e-03 4.71698120e-03 2.35849060e-03
      7.07547180e-03 2.35849060e-03 0. 0. 2.35849060e-03 0.
      2.35849060e-03 0. 1.65094342e-02 2.35849060e-03 0. 4.71698120e-03
      7.07547180e-03 0. 4.71698120e-03 0. 0. 0. 4.71698120e-03
      7.07547180e-03 2.35849060e-03 0. 0. 2.35849060e-03 0. 0. 0.
      2.35849060e-03 0. 0. 0. 0. 0. 0. 0. 0. 2.35849060e-03
      2.35849060e-03 0. 0. 2.35849060e-03 0. 0. 2.35849060e-03 0. 0.
      2.35849060e-03 2.35849060e-03 0. 0. 9.43396240e-03 0. 0. 0.
      2.35849060e-03 4.71698120e-03 0. 1.65094342e-02 2.35849060e-03 0.
      0. 0. 2.35849060e-03 2.35849060e-03 2.35849060e-03 7.07547180e-03
      0. 0. 4.71698120e-03 0. 1.17924530e-02 0. 0. 4.71698120e-03
      2.35849060e-03 2.35849060e-03 4.71698120e-03 2.35849060e-03 0.
      2.35849060e-03 0. 0. 4.71698120e-03 0. 4.71698120e-03 0. 0. 0.
      2.35849060e-03 4.71698120e-03 0. 4.71698120e-03 0. 0. 0. 0. 0. 0.
      2.35849060e-03 0. 0. 2.35849060e-03 0. 0. 0. 2.35849060e-03
      2.35849060e-03 0. 0. 2.35849060e-03 2.35849060e-03 0.
      7.07547180e-03 2.35849060e-03 2.35849060e-03 0. 0. 4.71698120e-03
      2.35849060e-03 0. 0. 0. 2.35849060e-03 0. 0. 4.71698120e-03 0.
      9.43396240e-03 2.35849060e-03 7.07547180e-03 2.35849060e-03 0. 0.
      2.35849060e-03 0. 0. 0. 0. 4.71698120e-03 7.07547180e-03 0.
      7.07547180e-03 0. 2.35849060e-03 0. 0. 9.43396240e-03 0.
      2.35849060e-03 4.71698120e-03 0. 4.71698120e-03 2.35849060e-03 0.
      0. 0. 2.35849060e-03 0. 7.07547180e-03 2.35849060e-03 0. 0. 0.
      2.35849060e-03 0. 0. 0. 7.07547180e-03 2.35849060e-03 0.
      2.35849060e-03 4.71698120e-03 0. 4.71698120e-03 0. 0. 0.
      2.35849060e-03 0. 0. 9.43396240e-03 2.35849060e-03 2.35849060e-03
      2.35849060e-03 0. 0. 0. 2.35849060e-03 2.35849060e-03 0. 0.
      4.71698120e-03 0. 0. 4.71698120e-03 0. 0. 0. 0. 0. 0. 0.
      2.35849060e-03 0. 7.07547180e-03 0. 4.71698120e-03 2.35849060e-03
      7.07547180e-03 4.71698120e-03 0. 4.71698120e-03 4.71698120e-03 0.
      4.71698120e-03 2.35849060e-02 0. 0. 2.35849060e-03 4.71698120e-03
      0. 2.35849060e-03 0. 2.35849060e-03 0. 2.35849060e-03 0. 0.
      4.71698120e-03 2.35849060e-03 2.35849060e-03 4.71698120e-03
      2.35849060e-03 2.35849060e-03 4.71698120e-03 2.35849060e-03
      7.07547180e-03 2.35849060e-03 0. 4.71698120e-03 2.35849060e-03 0.
      2.35849060e-03 0. 0. 7.07547180e-03 2.35849060e-03 2.35849060e-03
      0. 4.71698120e-03 2.35849060e-03 0. 0. 0. 4.71698120e-03
      2.35849060e-03 2.35849060e-03 0. 0. 7.07547180e-03 0. 0. 0.
      2.35849060e-03 2.35849060e-03 0. 2.35849060e-03 0. 0.
      7.07547180e-03 0. 2.35849060e-03 0. 2.35849060e-03 0. 0.
      1.17924530e-02 2.35849060e-03 0. 0. 0. 7.07547180e-03 0. 0.
      7.07547180e-03 0. 2.35849060e-03 0. 4.71698120e-03 0. 0.
      2.35849060e-03 9.43396240e-03 0. 0. 2.35849060e-03 0.
      7.07547180e-03 0. 2.35849060e-03 0. 0. 4.71698120e-03
      2.35849060e-03 4.71698120e-03 0. 0. 0. 0. 0. 2.35849060e-03
      4.71698120e-03 2.35849060e-03 7.07547180e-03 0. 2.35849060e-03
      9.43396240e-03 0. 7.07547180e-03 0. 4.71698120e-03 2.35849060e-03
      2.35849060e-03 0. 2.35849060e-03 0. 0. 2.35849060e-03
      4.71698120e-03 4.71698120e-03 0. 0. 0. 0. 2.35849060e-03
      7.07547180e-03 0. 0. 0. 4.71698120e-03 2.35849060e-03 0. 0. 0.
      2.35849060e-03 4.71698120e-03 4.71698120e-03 2.35849060e-03 0. 0.
      2.35849060e-03 0. 0. 4.71698120e-03 2.35849060e-03 4.71698120e-03
      0. 2.35849060e-03 0. 2.35849060e-03 0. 0. 0. 2.35849060e-03 0.</_>
    <_>
      0. 0. 0. 0. 0. 0. 0. 0. 0. 0. 6.06060587e-03 3.03030293e-03 0.
      3.03030293e-03 0. 3.33333351e-02 0. 3.03030293e-03 0. 0. 0.
      6.06060587e-03 0. 6.06060587e-03 6.06060587e-03 0. 0. 0. 0. 0.
      6.06060587e-03 0. 0. 0. 3.03030293e-03 0. 3.03030293e-03
      1.21212117e-02 0. 0. 3.03030293e-03 0. 3.03030293e-03
      3.03030293e-03 0. 6.06060587e-03 3.03030293e-03 6.06060587e-03
      6.06060587e-03 0. 0. 0. 1.51515156e-02 3.03030293e-03
      6.06060587e-03 0. 0. 3.03030293e-03 0. 0. 3.03030293e-03 0.
      3.03030293e-03 0. 6.06060587e-03 0. 0. 0. 1.81818176e-02 0. 0.
      3.03030293e-03 3.03030293e-03 0. 0. 0. 0. 0. 3.03030293e-03 0. 0.
      1.51515156e-02 0. 0. 6.06060587e-03 3.03030293e-03 0.
      6.06060587e-03 0. 0. 2.72727273e-02 9.09090880e-03 3.03030293e-03
      0. 0. 0. 0. 0. 0. 0. 3.03030293e-03 6.06060587e-03 0. 0.
      1.21212117e-02 0. 6.06060587e-03 3.03030293e-03 0. 6.06060587e-03
      0. 0. 0. 0. 6.06060587e-03 0. 3.03030293e-03 0. 6.06060587e-03 0.
      0. 3.03030293e-03 0. 3.03030293e-03 0. 0. 0. 0. 0. 1.21212117e-02
      1.21212117e-02 0. 0. 0. 3.03030293e-03 0. 3.03030293e-03
      9.09090880e-03 0. 0. 3.03030293e-03 0. 0. 0. 0. 1.81818176e-02
      3.03030293e-03 0. 0. 0. 0. 0. 0. 0. 0. 3.03030293e-03 0. 0. 0. 0.
      0. 6.06060587e-03 0. 0. 3.03030293e-03 0. 0. 0. 0. 0. 0.
      3.03030293e-03 0. 0. 6.06060587e-03 0. 0. 0. 0. 6.06060587e-03
      3.03030293e-03 3.03030293e-03 0. 0. 0. 3.03030293e-03 0.
      3.03030293e-03 0. 0. 0. 3.03030293e-03 0. 0. 9.09090880e-03 0. 0.
      0. 0. 0. 0. 3.03030293e-03 0. 0. 9.09090880e-03 0. 0.
      3.03030293e-03 3.03030293e-03 3.03030293e-03 3.03030293e-03
      3.03030293e-03 0. 0. 0. 0. 0. 3.03030293e-03 0. 0. 3.03030293e-03
      0. 0. 0. 0. 0. 9.09090880e-03 0. 3.03030293e-03 0. 0. 0. 0. 0. 0.
      0. 0. 0. 0. 3.03030293e-03 3.03030293e-03 0. 1.21212117e-02 0. 0.
      3.03030293e-03 0. 0. 3.03030293e-03 6.06060587e-03 3.03030293e-03
      0. 6.06060587e-03 0. 0. 6.06060587e-03 1.51515156e-02 0.
      3.03030293e-03 0. 0. 0. 3.03030293e-03 0. 0. 6.06060587e-03 0. 0.
      3.03030293e-03 0. 0. 6.06060587e-03 0. 0. 3.03030293e-03 0.
      3.03030293e-03 0. 3.03030293e-03 9.09090880e-03 0. 0.
      3.03030293e-03 0. 3.03030293e-03 0. 0. 6.06060587e-03 0.
      3.03030293e-03 3.03030293e-03 0. 3.03030293e-03 0. 3.03030293e-03
      0. 3.03030293e-03 6.06060587e-03 0. 0. 1.81818176e-02 0. 0. 0. 0.
      0. 3.03030293e-03 0. 0. 0. 9.09090880e-03 0. 3.03030293e-03
      6.06060587e-03 1.21212117e-02 0. 0. 0. 6.06060587e-03
      3.03030293e-03 0. 0. 0. 0. 3.03030293e-03 0. 3.03030293e-03 0. 0.
      3.03030293e-03 3.03030293e-03 0. 0. 0. 0. 0. 3.03030293e-03 0.
      9.09090880e-03 0. 0. 0. 0. 0. 0. 0. 0. 0. 0. 0. 3.03030293e-03 0.
      6.06060587e-03 0. 0. 0. 6.06060587e-03 0. 0. 3.03030293e-03
      3.03030293e-03 0. 0. 0. 3.03030293e-03 0. 0. 0. 3.03030293e-03 0.
      0. 0. 0. 0. 0. 0. 3.03030293e-03 0. 6.06060587e-03 6.06060587e-03
      0. 6.06060587e-03 0. 0. 0. 0. 0. 0. 0. 9.09090880e-03
      3.03030293e-03 3.03030293e-03 3.03030293e-03 0. 0. 0. 0. 0. 0.
      3.03030293e-03 0. 0. 0. 0. 0. 6.06060587e-03 0. 3.93939391e-02 0.
      0. 0. 3.03030293e-03 0. 0. 0. 3.03030293e-03 3.03030293e-03
      3.03030293e-03 3.03030293e-03 0. 0. 6.06060587e-03 0. 0.
      6.06060587e-03 0. 6.06060587e-03 0. 0. 6.06060587e-03 0. 0. 0. 0.
      3.03030293e-03 6.06060587e-03 0. 0. 0. 0. 0. 0. 0. 0.
      9.09090880e-03 0. 0. 0. 0. 0. 0. 3.03030293e-03 0. 0.
      1.81818176e-02 3.03030293e-03 3.03030293e-03 0. 3.03030293e-03
      3.03030293e-03 0. 3.03030293e-03 0. 0. 0. 6.06060587e-03 0. 0. 0.
      0. 0. 2.42424235e-02 6.06060587e-03 0. 0. 0. 0. 0. 0. 0. 0.
      3.03030293e-03 3.63636352e-02 0. 1.21212117e-02 0. 0. 0. 0. 0.
      3.03030293e-03 0. 0. 3.03030293e-03 0. 0. 0. 3.03030293e-03 0. 0.</_>
    <_>
      0. 0. 0. 0. 2.51889159e-03 0. 0. 5.03778318e-03 0. 5.03778318e-03
      2.51889159e-03 0. 2.51889159e-03 0. 5.03778318e-03 0. 0.
      2.51889159e-03 2.51889159e-03 0. 0. 5.03778318e-03 1.51133500e-02
      0. 0. 0. 2.51889159e-03 0. 0. 0. 5.03778318e-03 0. 2.51889159e-03
      7.55667500e-03 2.51889159e-03 2.51889159e-03 0. 0. 0. 0. 0. 0.
      7.55667500e-03 0. 0. 0. 0. 0. 0. 0. 5.03778318e-03 2.51889159e-03
      0. 2.51889159e-03 5.03778318e-03 0. 0. 0. 0. 0. 0. 2.51889159e-03
      5.03778318e-03 2.51889159e-03 5.03778318e-03 7.55667500e-03 0. 0.
      5.03778318e-03 0. 2.51889159e-03 7.55667500e-03 2.51889159e-03
      2.51889159e-03 0. 0. 0. 0. 5.03778318e-03 5.03778318e-03 0. 0.
      2.51889159e-03 5.03778318e-03 0. 5.03778318e-03 0. 0.
      5.03778318e-03 5.03778318e-03 2.51889159e-03 2.51889159e-03 0. 0.
      2.51889159e-03 0. 0. 2.51889159e-03 2.51889159e-03 0.
      2.51889159e-03 0. 0. 0. 0. 2.51889159e-03 0. 0. 0. 0.
      1.00755664e-02 0. 2.51889159e-03 0. 0. 5.03778318e-03 0.
      7.55667500e-03 0. 0. 0. 0. 5.03778318e-03 0. 0. 0. 1.76322423e-02
      2.51889159e-03 5.03778318e-03 2.51889159e-03 0. 0. 0.
      2.51889159e-03 0. 2.51889159e-03 0. 0. 1.25944586e-02 0. 0.
      5.03778318e-03 2.51889159e-03 2.51889159e-03 0. 0. 0. 0. 0.
      2.51889159e-03 0. 0. 2.01511327e-02 0. 7.55667500e-03
      5.03778318e-03 2.51889159e-03 0. 5.03778318e-03 5.03778318e-03
      2.51889159e-03 0. 0. 0. 0. 7.55667500e-03 0. 5.03778318e-03 0. 0.
      0. 0. 0. 2.51889159e-03 2.51889159e-03 0. 0. 0. 0. 0. 0.
      2.51889159e-03 0. 5.03778318e-03 0. 0. 0. 0. 2.51889159e-03 0.
      5.03778318e-03 0. 2.51889159e-03 0. 2.51889159e-03 0. 0.
      5.03778318e-03 0. 0. 0. 0. 0. 2.51889159e-03 0. 0. 2.51889159e-03
      0. 7.55667500e-03 2.51889159e-03 2.51889159e-03 0. 0. 0. 0. 0. 0.
      0. 2.51889159e-03 0. 5.03778318e-03 0. 0. 0. 7.55667500e-03
      5.03778318e-03 2.51889159e-03 0. 0. 5.03778318e-03 0. 0. 0. 0.
      2.51889159e-03 1.51133500e-02 5.03778318e-03 0. 0. 0.
      2.51889159e-03 0. 0. 2.51889159e-03 2.51889159e-03 0. 0. 0. 0. 0.
      5.03778318e-03 2.51889159e-03 0. 0. 0. 0. 0. 5.03778318e-03 0. 0.
      1.51133500e-02 1.51133500e-02 2.51889159e-03 2.51889159e-03
      2.26700250e-02 0. 0. 5.03778318e-03 0. 0. 0. 0. 0. 2.51889159e-03
      0. 0. 0. 0. 2.51889159e-03 0. 0. 5.03778318e-03 0. 0. 0.
      5.03778318e-03 5.03778318e-03 0. 0. 0. 5.03778318e-03 0. 0.
      2.51889159e-03 2.01511327e-02 0. 0. 0. 0. 2.51889159e-03
      5.03778318e-03 5.03778318e-03 2.51889159e-03 2.51889159e-03 0.
      2.51889159e-03 0. 2.51889159e-03 2.51889159e-03 0. 0. 0.
      5.03778318e-03 2.51889159e-03 0. 0. 0. 0. 2.51889159e-03 0.
      1.25944586e-02 0. 2.51889159e-03 0. 0. 0. 5.03778318e-03 0. 0. 0.
      0. 0. 0. 1.25944586e-02 2.51889159e-03 0. 0. 7.55667500e-03
      7.55667500e-03 0. 0. 2.51889159e-03 2.51889159e-03 2.51889159e-03
      0. 0. 0. 7.55667500e-03 0. 0. 0. 0. 0. 0. 0. 0. 0. 0.
      2.51889159e-03 2.51889159e-03 2.51889159e-03 0. 0. 1.76322423e-02
      2.51889159e-03 2.51889159e-03 0. 0. 0. 0. 0. 5.03778318e-03
      5.03778318e-03 2.51889159e-03 0. 0. 0. 0. 0. 0. 1.00755664e-02 0.
      2.51889159e-03 0. 0. 2.51889159e-03 0. 0. 0. 1.00755664e-02 0.
      2.51889159e-03 0. 2.51889159e-03 0. 0. 0. 5.03778318e-03
      1.51133500e-02 2.51889159e-03 0. 2.51889159e-03 0. 0. 0. 0. 0. 0.
      2.51889159e-03 0. 0. 5.03778318e-03 0. 0. 5.03778318e-03 0.
      7.55667500e-03 0. 0. 7.55667500e-03 2.51889159e-03 0. 0.
      7.55667500e-03 0. 0. 0. 1.00755664e-02 3.52644846e-02 0.
      5.03778318e-03 0. 5.03778318e-03 0. 2.51889159e-03 0.
      2.51889159e-03 0. 2.51889159e-03 0. 0. 0. 2.51889159e-03 0. 0.
      5.03778318e-03 0. 0. 0. 0. 5.03778318e-03 0. 1.51133500e-02
      5.03778318e-03 0. 5.03778318e-03 0. 0. 0. 5.03778318e-03
      7.55667500e-03 5.03778318e-03 2.51889159e-03 2.51889159e-03
      2.51889159e-03 0. 2.51889159e-03 5.03778318e-03 2.51889159e-03 0.
      2.51889159e-03 0. 0. 2.51889159e-03 0. 2.51889159e-03 0.
      2.51889159e-03 2.51889159e-03 5.03778318e-03 0. 5.03778318e-03 0.
      0. 0. 0. 5.03778318e-03 2.51889159e-03 0. 1.51133500e-02
      2.51889159e-03 2.51889159e-03 5.03778318e-03 5.03778318e-03
      2.51889159e-03 0. 0. 0. 0. 0.</_>
    <_>
      0. 2.39808159e-03 0. 2.39808159e-03 0. 2.39808159e-03 0.
      2.39808159e-03 2.39808159e-03 2.39808159e-03 0. 2.39808159e-03
      4.79616318e-03 0. 2.39808159e-03 0. 0. 0. 2.39808159e-03
      2.39808159e-03 0. 0. 9.59232636e-03 0. 4.79616318e-03
      2.39808159e-03 0. 0. 0. 0. 2.39808159e-03 2.39808159e-03 0. 0.
      4.79616318e-03 9.59232636e-03 0. 2.39808159e-03 2.39808159e-03 0.
      0. 9.59232636e-03 0. 2.39808159e-03 0. 0. 0. 2.39808159e-03
      2.39808159e-03 2.39808159e-03 4.79616318e-03 0. 4.79616318e-03
      2.39808159e-03 2.39808159e-03 0. 2.39808159e-03 0. 0. 0. 0. 0.
      7.19424477e-03 2.39808159e-03 7.19424477e-03 0. 0. 0. 0. 0.
      2.39808159e-03 9.59232636e-03 0. 7.19424477e-03 4.79616318e-03 0.
      0. 4.79616318e-03 0. 0. 2.39808159e-03 2.39808159e-03 0. 0.
      2.39808159e-03 0. 0. 2.39808159e-03 2.39808159e-03 2.39808159e-03
      0. 4.79616318e-03 1.43884895e-02 0. 0. 0. 0. 0. 2.39808159e-03 0.
      0. 2.39808159e-03 7.19424477e-03 2.39808159e-03 0. 7.19424477e-03
      0. 4.79616318e-03 0. 2.39808159e-03 4.79616318e-03 0.
      2.39808159e-03 2.39808159e-03 0. 2.39808159e-03 2.39808159e-03 0.
      2.39808159e-03 2.39808159e-03 2.39808159e-03 0. 1.19904075e-02
      2.39808159e-03 0. 0. 4.79616318e-03 0. 4.79616318e-03 0.
      2.39808159e-03 2.39808159e-03 4.79616318e-03 0. 0. 2.39808159e-03
      0. 0. 0. 2.39808159e-03 4.79616318e-03 4.79616318e-03 0. 0. 0. 0.
      0. 2.39808159e-03 2.39808159e-03 7.19424477e-03 0. 2.39808159e-03
      4.79616318e-03 2.39808159e-03 2.39808159e-03 0. 2.39808159e-03 0.
      2.39808159e-03 0. 0. 2.39808159e-03 0. 2.39808159e-03
      2.39808159e-03 0. 2.39808159e-03 0. 4.79616318e-03 0. 0. 0. 0. 0.
      7.19424477e-03 0. 0. 0. 0. 7.19424477e-03 2.39808159e-03 0.
      4.79616318e-03 0. 0. 4.79616318e-03 1.19904075e-02 0.
      4.79616318e-03 0. 2.39808159e-03 0. 0. 0. 0. 0. 0. 4.79616318e-03
      2.39808159e-03 2.39808159e-03 2.39808159e-03 0. 0. 0.
      4.79616318e-03 2.39808159e-03 0. 0. 0. 2.39808159e-03 0. 0.
      4.79616318e-03 0. 7.19424477e-03 0. 4.79616318e-03 4.79616318e-03
      0. 7.19424477e-03 4.79616318e-03 0. 0. 0. 0. 0. 7.19424477e-03 0.
      2.39808159e-03 0. 0. 0. 2.39808159e-03 2.39808159e-03 0. 0. 0. 0.
      0. 2.39808159e-03 0. 2.39808159e-03 0. 0. 0. 0. 0. 0. 0.
      2.39808159e-03 0. 4.79616318e-03 0. 0. 0. 2.39808159e-03
      7.19424477e-03 4.79616318e-03 0. 4.79616318e-03 2.39808159e-03
      4.79616318e-03 4.79616318e-03 4.79616318e-03 0. 2.39808159e-03
      2.39808159e-03 4.79616318e-03 0. 2.39808159e-03 0. 4.79616318e-03
      7.19424477e-03 2.39808159e-03 0. 0. 0. 0. 2.39808159e-03
      2.39808159e-03 0. 0. 7.19424477e-03 0. 4.79616318e-03
      2.39808159e-03 0. 0. 0. 4.79616318e-03 0. 4.79616318e-03
      1.19904075e-02 0. 7.19424477e-03 2.39808159e-03 2.39808159e-03
      2.39808159e-03 0. 9.59232636e-03 0. 0. 0. 2.39808159e-03 0. 0. 0.
      2.39808159e-03 0. 0. 0. 4.79616318e-03 2.39808159e-03
      2.39808159e-03 0. 0. 0. 4.79616318e-03 4.79616318e-03 0.
      2.39808159e-03 0. 2.39808159e-03 2.39808159e-03 7.19424477e-03 0.
      1.19904075e-02 0. 0. 4.79616318e-03 2.39808159e-03 0.
      2.39808159e-03 2.39808159e-03 2.39808159e-03 2.39808159e-03 0.
      2.39808159e-03 0. 4.79616318e-03 0. 2.39808159e-03 2.39808159e-03
      0. 0. 7.19424477e-03 2.39808159e-03 0. 2.39808159e-03
      2.39808159e-03 2.39808159e-03 0. 2.39808159e-03 4.79616318e-03 0.
      0. 2.39808159e-03 2.39808159e-03 2.39808159e-03 0. 2.39808159e-03
      0. 4.79616318e-03 0. 2.39808159e-03 4.79616318e-03 0. 0. 0. 0.
      4.79616318e-03 0. 2.39808159e-03 0. 2.39808159e-03 0. 0.
      7.19424477e-03 0. 2.39808159e-03 2.39808159e-03 0. 2.39808159e-03
      4.79616318e-03 0. 1.19904075e-02 0. 0. 0. 7.19424477e-03 0. 0. 0.
      7.19424477e-03 4.79616318e-03 2.39808159e-03 0. 0. 0.
      2.39808159e-03 0. 0. 0. 0. 2.39808159e-03 2.39808159e-03
      2.39808159e-03 0. 4.79616318e-03 0. 2.39808159e-03 2.39808159e-03
      4.79616318e-03 4.79616318e-03 2.39808159e-03 2.39808159e-03
      2.39808159e-03 0. 2.39808159e-03 0. 0. 4.79616318e-03 0.
      1.91846527e-02 2.39808159e-03 0. 0. 2.39808159e-03 0. 0. 0.
      4.79616318e-03 2.39808159e-03 0. 0. 2.39808159e-03 7.19424477e-03
      0. 2.39808159e-03 2.39808159e-03 0. 4.79616318e-03 2.39808159e-03
      0. 9.59232636e-03 0. 0. 0. 2.39808159e-03 0. 0. 1.43884895e-02 0.
      4.79616318e-03 2.39808159e-03 0. 2.39808159e-03 0. 0. 0. 0.
      7.19424477e-03 0. 4.79616318e-03 0. 4.79616318e-03 0.
      4.79616318e-03 2.39808159e-03 2.39808159e-03 0. 0. 0.
      7.19424477e-03 2.39808159e-03 4.79616318e-03 0. 4.79616318e-03
      2.39808159e-03 2.39808159e-03 2.39808159e-03 0. 2.39808159e-03
      4.79616318e-03 0. 0. 7.19424477e-03 2.39808159e-03 0.
      2.39808159e-03 4.79616318e-03 4.79616318e-03 0. 0. 9.59232636e-03
      0. 0. 2.39808159e-03 0. 7.19424477e-03</_>
    <_>
      2.24215258e-03 2.24215258e-03 0. 0. 0. 2.24215258e-03
      4.48430516e-03 2.24215258e-03 0. 2.24215258e-03 0. 4.48430516e-03
      4.48430516e-03 0. 0. 0. 0. 0. 4.48430516e-03 4.48430516e-03 0.
      8.96861032e-03 4.48430516e-03 2.24215258e-03 4.48430516e-03 0. 0.
      6.72645727e-03 0. 6.72645727e-03 0. 2.24215258e-03 0. 0. 0. 0.
      6.72645727e-03 0. 0. 0. 0. 0. 4.48430516e-03 6.72645727e-03 0. 0.
      0. 2.24215258e-03 0. 2.24215258e-03 2.24215258e-03 0.
      4.48430516e-03 0. 2.24215258e-03 0. 0. 6.72645727e-03
      2.24215258e-03 0. 0. 0. 0. 0. 0. 0. 4.48430516e-03 0.
      1.12107620e-02 2.24215258e-03 2.24215258e-03 0. 2.24215258e-03 0.
      2.24215258e-03 0. 2.24215258e-03 6.72645727e-03 2.24215258e-03
      6.72645727e-03 0. 2.24215258e-03 0. 0. 2.24215258e-03
      2.24215258e-03 0. 2.24215258e-03 0. 2.24215258e-03 2.24215258e-03
      0. 0. 2.24215258e-03 0. 0. 0. 4.48430516e-03 0. 2.24215258e-03
      4.48430516e-03 0. 0. 0. 0. 0. 0. 2.24215258e-03 0. 8.96861032e-03
      4.48430516e-03 4.48430516e-03 0. 0. 2.24215258e-03 0. 0. 0. 0.
      2.24215258e-03 0. 0. 0. 0. 2.24215258e-03 0. 0. 0. 1.34529145e-02
      2.24215258e-03 1.12107620e-02 0. 0. 0. 1.56950671e-02 0. 0. 0.
      2.24215258e-03 2.24215258e-03 0. 0. 4.48430516e-03 0.
      6.72645727e-03 2.24215258e-03 0. 0. 0. 2.24215258e-03 0. 0.
      8.96861032e-03 2.24215258e-03 0. 0. 2.24215258e-03 0.
      2.24215258e-03 0. 0. 2.24215258e-03 0. 2.24215258e-03
      6.72645727e-03 0. 2.24215258e-03 4.48430516e-03 0. 4.48430516e-03
      2.24215258e-03 0. 2.24215258e-03 0. 8.96861032e-03 2.24215258e-03
      0. 0. 0. 1.34529145e-02 8.96861032e-03 8.96861032e-03 0. 0. 0. 0.
      2.24215258e-03 6.72645727e-03 0. 0. 0. 0. 2.24215258e-03 0.
      2.24215258e-03 2.24215258e-03 0. 0. 0. 0. 6.72645727e-03 0.
      4.48430516e-03 0. 0. 6.72645727e-03 0. 2.01793723e-02
      2.24215258e-03 0. 2.24215258e-03 2.24215258e-03 0. 0.
      2.24215258e-03 6.72645727e-03 0. 2.24215258e-03 8.96861032e-03 0.
      6.72645727e-03 0. 6.72645727e-03 2.24215258e-03 4.48430516e-03
      2.24215258e-03 2.24215258e-03 0. 4.48430516e-03 8.96861032e-03 0.
      4.48430516e-03 2.24215258e-03 0. 0. 0. 6.72645727e-03
      2.24215258e-03 4.48430516e-03 2.24215258e-03 4.48430516e-03
      4.48430516e-03 0. 0. 2.24215258e-03 4.48430516e-03 4.48430516e-03
      2.24215258e-03 0. 0. 4.48430516e-03 0. 0. 2.24215258e-03 0.
      1.12107620e-02 0. 2.24215258e-03 2.24215258e-03 0. 2.24215258e-03
      0. 4.48430516e-03 2.24215258e-03 0. 2.24215258e-03 2.24215258e-03
      4.48430516e-03 2.24215258e-03 0. 0. 2.24215258e-03 0. 0.
      2.24215258e-03 4.48430516e-03 0. 4.48430516e-03 0. 4.48430516e-03
      0. 4.48430516e-03 6.72645727e-03 2.24215258e-03 0. 0.
      2.24215258e-03 2.24215258e-03 0. 0. 8.96861032e-03 2.24215258e-03
      2.24215258e-03 0. 2.24215258e-03 4.48430516e-03 4.48430516e-03
      4.48430516e-03 2.24215258e-03 0. 0. 0. 0. 0. 0. 0. 2.24215258e-03
      4.48430516e-03 2.24215258e-03 0. 0. 0. 4.48430516e-03
      2.24215258e-03 0. 0. 2.24215258e-03 0. 1.12107620e-02 0. 0. 0. 0.
      0. 0. 0. 2.24215258e-03 0. 2.24215258e-03 0. 2.24215258e-03 0. 0.
      2.24215258e-03 4.48430516e-03 2.24215258e-03 0. 0. 0.
      2.24215258e-03 0. 0. 2.24215258e-03 0. 0. 2.24215258e-03
      6.72645727e-03 1.34529145e-02 2.24215258e-03 6.72645727e-03 0. 0.
      2.24215258e-03 2.24215258e-03 2.24215258e-03 0. 6.72645727e-03 0.
      2.24215258e-03 4.48430516e-03 1.56950671e-02 4.48430516e-03 0.
      2.24215258e-03 0. 4.48430516e-03 6.72645727e-03 0. 0. 0.
      2.24215258e-03 0. 2.24215258e-03 4.48430516e-03 0. 0. 0.
      6.72645727e-03 0. 0. 4.48430516e-03 0. 8.96861032e-03
      4.48430516e-03 2.24215258e-03 2.24215258e-03 4.48430516e-03 0.
      4.48430516e-03 0. 0. 4.48430516e-03 0. 2.24215258e-03 0. 0. 0. 0.
      2.24215258e-03 0. 2.24215258e-03 0. 2.24215258e-03 0.
      2.24215258e-03 6.72645727e-03 0. 2.24215258e-03 0. 0.
      2.24215258e-03 0. 0. 0. 0. 4.48430516e-03 2.24215258e-03
      2.24215258e-03 4.48430516e-03 0. 0. 4.48430516e-03 2.24215258e-03
      0. 4.48430516e-03 2.24215258e-03 4.48430516e-03 0. 2.24215258e-03
      0. 4.48430516e-03 4.48430516e-03 0. 2.24215258e-03 0. 0. 0. 0.
      2.24215258e-03 2.24215258e-03 0. 0. 2.24215258e-03 0. 0. 0. 0. 0.
      2.24215258e-03 6.72645727e-03 4.48430516e-03 2.24215258e-03 0.
      8.96861032e-03 6.72645727e-03 0. 0. 4.48430516e-03 0. 0. 0. 0. 0.
      2.24215258e-03 4.48430516e-03 0. 0. 0. 2.24215258e-03 0.
      2.24215258e-03 4.48430516e-03 2.24215258e-03 2.24215258e-03
      2.24215258e-03 2.24215258e-03 0. 0. 2.24215258e-03 0. 0.
      2.24215258e-03 4.48430516e-03 0. 0. 0. 0. 2.24215258e-03 0.
      2.24215258e-03 2.24215258e-03 0. 2.24215258e-03 4.48430516e-03
      1.12107620e-02 6.72645727e-03 4.48430516e-03 0. 6.72645727e-03 0.</_>
    <_>
      0. 2.15053768e-03 0. 4.30107536e-03 2.15053768e-03 0.
      4.30107536e-03 2.15053768e-03 0. 0. 0. 0. 2.15053768e-03
      2.15053768e-03 0. 4.30107536e-03 2.15053768e-03 0. 0.
      4.30107536e-03 4.30107536e-03 8.60215072e-03 2.15053768e-03 0.
      4.30107536e-03 2.15053768e-03 0. 0. 6.45161280e-03 2.15053768e-03
      0. 0. 2.15053768e-03 0. 0. 0. 2.15053768e-03 2.15053768e-03 0.
      2.15053768e-03 0. 0. 2.15053768e-03 4.30107536e-03 0.
      6.45161280e-03 0. 4.30107536e-03 2.15053768e-03 2.15053768e-03
      4.30107536e-03 2.15053768e-03 1.50537631e-02 0. 0. 2.15053768e-03
      0. 2.15053768e-03 0. 0. 0. 2.15053768e-03 0. 2.15053768e-03
      2.15053768e-03 2.15053768e-03 8.60215072e-03 0. 2.15053768e-03
      4.30107536e-03 2.15053768e-03 0. 0. 0. 0. 2.15053768e-03
      2.15053768e-03 4.30107536e-03 4.30107536e-03 0. 2.15053768e-03
      4.30107536e-03 4.30107536e-03 2.15053768e-03 2.15053768e-03
      6.45161280e-03 0. 2.15053768e-03 0. 4.30107536e-03 0. 0.
      2.15053768e-03 0. 0. 0. 2.15053768e-03 4.30107536e-03
      2.15053768e-03 0. 0. 2.15053768e-03 0. 0. 2.15053768e-03
      6.45161280e-03 2.15053768e-03 2.15053768e-03 0. 0. 0. 0. 0. 0. 0.
      2.15053768e-03 4.30107536e-03 0. 0. 2.15053768e-03 2.15053768e-03
      2.15053768e-03 0. 0. 0. 0. 0. 0. 2.15053768e-03 0. 2.15053768e-03
      0. 0. 2.15053768e-03 2.15053768e-03 2.15053768e-03 1.50537631e-02
      1.93548389e-02 0. 0. 2.15053768e-03 0. 0. 4.30107536e-03 0.
      2.15053768e-03 8.60215072e-03 2.15053768e-03 0. 4.30107536e-03
      4.30107536e-03 1.72043014e-02 4.30107536e-03 4.30107536e-03
      2.15053768e-03 2.15053768e-03 0. 2.15053768e-03 0. 4.30107536e-03
      1.07526882e-02 0. 8.60215072e-03 0. 2.58064512e-02 2.15053768e-03
      0. 4.30107536e-03 4.30107536e-03 2.15053768e-03 0. 0. 0.
      4.30107536e-03 0. 0. 2.15053768e-03 0. 2.15053768e-03
      2.15053768e-03 0. 0. 0. 0. 0. 0. 0. 0. 2.15053768e-03 0. 0. 0. 0.
      2.15053768e-03 2.15053768e-03 6.45161280e-03 0. 0. 0. 0.
      2.15053768e-03 4.30107536e-03 0. 4.30107536e-03 2.15053768e-03 0.
      4.30107536e-03 0. 0. 0. 2.15053768e-03 0. 2.15053768e-03 0. 0. 0.
      4.30107536e-03 1.50537631e-02 0. 0. 0. 0. 4.30107536e-03
      2.15053768e-03 0. 6.45161280e-03 0. 0. 2.15053768e-03
      2.15053768e-03 2.15053768e-03 0. 6.45161280e-03 0. 4.30107536e-03
      2.15053768e-03 0. 2.15053768e-03 2.15053768e-03 0. 0. 0. 0. 0. 0.
      4.30107536e-03 2.15053768e-03 0. 6.45161280e-03 0. 0.
      2.15053768e-03 2.15053768e-03 0. 0. 8.60215072e-03 0.
      1.93548389e-02 4.30107536e-03 0. 8.60215072e-03 0. 0.
      2.15053768e-03 0. 4.30107536e-03 0. 2.15053768e-03 2.15053768e-03
      0. 0. 4.30107536e-03 0. 4.30107536e-03 0. 0. 0. 0. 0.
      6.45161280e-03 2.15053768e-03 0. 4.30107536e-03 6.45161280e-03
      2.15053768e-03 0. 2.15053768e-03 0. 0. 4.30107536e-03 0. 0.
      8.60215072e-03 4.30107536e-03 6.45161280e-03 6.45161280e-03
      6.45161280e-03 4.30107536e-03 2.15053768e-03 0. 0. 0. 0.
      4.30107536e-03 2.15053768e-03 2.15053768e-03 0. 0. 2.15053768e-03
      2.15053768e-03 0. 6.45161280e-03 0. 2.15053768e-03 4.30107536e-03
      0. 2.15053768e-03 0. 2.15053768e-03 0. 0. 0. 2.15053768e-03 0. 0.
      4.30107536e-03 0. 2.15053768e-03 0. 6.45161280e-03 2.15053768e-03
      0. 2.15053768e-03 0. 2.15053768e-03 0. 0. 0. 0. 2.15053768e-03 0.
      0. 0. 0. 4.30107536e-03 4.30107536e-03 2.15053768e-03 0.
      2.15053768e-03 6.45161280e-03 0. 0. 0. 0. 8.60215072e-03
      2.15053768e-03 0. 0. 0. 4.30107536e-03 1.29032256e-02
      6.45161280e-03 2.15053768e-03 0. 2.15053768e-03 0. 0. 0.
      4.30107536e-03 2.15053768e-03 0. 2.15053768e-03 0. 0. 0. 0. 0.
      6.45161280e-03 6.45161280e-03 4.30107536e-03 0. 0. 0.
      2.15053768e-03 0. 2.15053768e-03 2.15053768e-03 2.15053768e-03
      4.30107536e-03 0. 2.15053768e-03 0. 0. 2.15053768e-03 0. 0. 0.
      4.30107536e-03 0. 4.30107536e-03 2.15053768e-03 1.50537631e-02
      2.15053768e-03 2.15053768e-03 0. 0. 0. 6.45161280e-03 0. 0. 0. 0.
      0. 0. 0. 4.30107536e-03 0. 2.15053768e-03 2.15053768e-03
      2.15053768e-03 2.15053768e-03 0. 0. 0. 4.30107536e-03
      2.15053768e-03 6.45161280e-03 0. 4.30107536e-03 6.45161280e-03
      6.45161280e-03 0. 4.30107536e-03 0. 0. 2.15053768e-03 0.
      4.30107536e-03 2.15053768e-03 0. 0. 2.15053768e-03 0. 0.
      1.29032256e-02 4.30107536e-03 0. 0. 2.15053768e-03 6.45161280e-03
      2.15053768e-03 2.15053768e-03 4.30107536e-03 4.30107536e-03
      4.30107536e-03 0. 1.07526882e-02 4.30107536e-03 0. 2.15053768e-03
      0. 2.15053768e-03 2.15053768e-03 0. 6.45161280e-03 0.
      2.15053768e-03 0. 2.15053768e-03 2.15053768e-03 0. 0.
      2.15053768e-03 0. 0. 0. 2.15053768e-03 0. 0. 2.15053768e-03
      2.15053768e-03 0. 0. 0. 0. 0. 0. 4.30107536e-03 2.15053768e-03 0.
      2.15053768e-03 4.30107536e-03 0. 0. 8.60215072e-03 2.15053768e-03
      2.15053768e-03 0. 2.15053768e-03 2.15053768e-03</_>
    <_>
      9.86842066e-03 0. 0. 0. 0. 0. 0. 0. 3.28947371e-03 0. 0.
      3.28947371e-03 0. 0. 0. 0. 3.28947371e-03 0. 3.28947371e-03 0. 0.
      0. 0. 0. 3.28947371e-03 0. 0. 0. 0. 0. 3.28947371e-03 0.
      3.28947371e-03 0. 6.57894742e-03 3.28947371e-03 3.28947371e-03 0.
      0. 0. 0. 3.28947371e-03 3.28947371e-03 9.86842066e-03 0. 0. 0.
      3.28947371e-03 0. 9.86842066e-03 0. 3.28947371e-03 0.
      6.57894742e-03 6.57894742e-03 0. 6.57894742e-03 3.28947371e-03 0.
      0. 0. 0. 0. 0. 0. 0. 0. 3.28947371e-03 0. 0. 0. 2.30263155e-02 0.
      0. 3.28947371e-03 0. 0. 0. 0. 0. 0. 0. 6.57894742e-03 0. 0. 0. 0.
      0. 0. 0. 0. 0. 0. 0. 3.28947371e-03 0. 0. 6.57894742e-03 0.
      3.28947371e-03 0. 3.28947371e-03 1.64473690e-02 3.28947371e-03 0.
      0. 0. 0. 0. 0. 0. 0. 0. 0. 3.28947371e-03 3.28947371e-03
      6.57894742e-03 0. 0. 3.28947371e-03 3.28947371e-03 3.28947371e-03
      6.57894742e-03 3.28947371e-03 0. 0. 0. 0. 3.28947371e-03 0.
      3.28947371e-03 0. 1.64473690e-02 0. 0. 0. 3.28947371e-03 0. 0.
      6.57894742e-03 0. 0. 0. 3.28947371e-03 0. 0. 0. 6.57894742e-03
      6.57894742e-03 6.57894742e-03 0. 0. 9.86842066e-03 0.
      9.86842066e-03 0. 0. 6.57894742e-03 0. 1.31578948e-02
      3.28947371e-03 0. 0. 0. 3.28947371e-03 0. 0. 0. 0. 6.57894742e-03
      3.28947371e-03 0. 1.97368413e-02 3.28947371e-03 3.28947371e-03 0.
      0. 0. 3.28947371e-03 3.28947371e-03 0. 0. 3.28947371e-03 0. 0.
      3.28947371e-03 0. 0. 3.28947371e-03 0. 0. 0. 0. 0. 0.
      3.28947371e-03 0. 6.57894742e-03 3.28947371e-03 0. 6.57894742e-03
      0. 0. 0. 3.28947371e-03 0. 0. 0. 0. 3.28947371e-03 2.63157897e-02
      6.57894742e-03 0. 0. 0. 0. 0. 0. 0. 3.28947371e-03 0. 0. 0.
      6.57894742e-03 2.96052638e-02 0. 0. 6.57894742e-03 0. 0. 0. 0. 0.
      0. 0. 0. 3.28947371e-03 0. 0. 0. 0. 6.57894742e-03 0. 0.
      3.28947371e-03 0. 0. 9.86842066e-03 0. 9.86842066e-03 0. 0. 0.
      6.57894742e-03 9.86842066e-03 0. 0. 9.86842066e-03 3.28947371e-03
      3.28947371e-03 0. 6.57894742e-03 0. 0. 0. 1.64473690e-02 0.
      6.57894742e-03 0. 3.28947371e-03 0. 0. 0. 3.28947371e-03
      9.86842066e-03 0. 0. 0. 0. 9.86842066e-03 0. 0. 0. 0.
      3.28947371e-03 0. 3.28947371e-03 0. 0. 3.28947371e-03 0. 0.
      3.28947371e-03 6.57894742e-03 0. 0. 0. 0. 0. 3.28947371e-03 0.
      3.28947371e-03 6.57894742e-03 0. 3.28947371e-03 0. 0.
      6.57894742e-03 0. 3.28947371e-03 0. 0. 0. 0. 0. 0. 3.28947371e-03
      3.28947371e-03 0. 0. 3.28947371e-03 0. 0. 0. 3.28947371e-03 0. 0.
      0. 0. 0. 3.28947371e-03 0. 0. 0. 9.86842066e-03 0. 0. 0.
      3.28947371e-03 0. 0. 0. 0. 0. 0. 0. 2.96052638e-02 9.86842066e-03
      0. 3.28947371e-03 1.97368413e-02 0. 0. 3.28947371e-03 0.
      6.57894742e-03 3.28947371e-03 0. 1.31578948e-02 0. 0. 0. 0. 0. 0.
      0. 9.86842066e-03 0. 3.28947371e-03 0. 0. 0. 0. 3.28947371e-03 0.
      0. 0. 0. 0. 3.28947371e-03 0. 0. 0. 0. 0. 0. 0. 0. 0.
      1.64473690e-02 3.28947371e-03 6.57894742e-03 0. 0. 3.28947371e-03
      0. 0. 0. 0. 0. 0. 3.28947371e-03 0. 0. 0. 0. 0. 0. 0. 0. 0. 0.
      4.60526310e-02 3.28947371e-03 0. 0. 3.28947371e-03 0. 0.
      2.63157897e-02 0. 0. 0. 3.28947371e-03 3.28947371e-03 0. 0. 0. 0.
      0. 0. 0. 2.30263155e-02 0. 3.28947371e-03 0. 0. 0. 3.28947371e-03
      6.57894742e-03 0. 0. 0. 0. 0. 0. 3.28947371e-03 0. 1.97368413e-02
      0. 0. 6.57894742e-03 0. 0. 3.28947371e-03 0. 3.28947371e-03 0. 0.
      0. 0. 0. 0. 3.28947371e-03 0. 0. 0. 0. 0. 0. 6.57894742e-03 0. 0.
      6.57894742e-03 0. 0. 6.57894742e-03 0. 0. 0. 0. 3.28947371e-03 0.
      0. 0. 0. 0. 3.28947371e-03 0. 0. 0. 0. 0. 0. 6.57894742e-03 0. 0.
      0. 0. 0.</_>
    <_>
      4.54545440e-03 0. 0. 0. 0. 0. 4.54545440e-03 0. 1.36363637e-02 0.
      0. 0. 0. 0. 9.09090880e-03 0. 0. 9.09090880e-03 0. 0. 0. 0. 0. 0.
      0. 0. 9.09090880e-03 4.54545440e-03 0. 0. 1.36363637e-02 0. 0. 0.
      9.09090880e-03 9.09090880e-03 4.54545440e-03 0. 0. 0. 0. 0. 0. 0.
      0. 4.54545440e-03 0. 0. 0. 0. 2.27272734e-02 0. 0. 0. 0. 0.
      4.54545440e-03 4.54545440e-03 4.54545440e-03 0. 0. 0.
      4.54545440e-03 0. 0. 0. 0. 0. 0. 0. 4.54545440e-03 4.54545440e-03
      0. 0. 0. 0. 0. 4.54545440e-03 0. 0. 4.54545440e-03 0. 0.
      1.36363637e-02 0. 0. 0. 0. 9.09090880e-03 4.54545440e-03 0.
      4.54545440e-03 0. 0. 0. 0. 0. 9.09090880e-03 0. 0. 0. 0.
      3.63636352e-02 4.54545440e-03 0. 9.09090880e-03 1.81818176e-02 0.
      0. 0. 0. 0. 0. 0. 0. 0. 0. 0. 0. 9.09090880e-03 0. 1.36363637e-02
      0. 0. 0. 4.54545440e-03 9.09090880e-03 0. 0. 0. 0. 0. 0.
      4.54545440e-03 0. 0. 0. 0. 4.54545440e-03 0. 0. 9.09090880e-03 0.
      4.54545440e-03 0. 0. 0. 0. 0. 0. 0. 1.36363637e-02 0.
      4.54545440e-03 0. 0. 4.54545440e-03 9.09090880e-03 0. 0. 0. 0. 0.
      0. 0. 0. 4.54545440e-03 0. 0. 0. 0. 0. 1.36363637e-02 0. 0. 0.
      4.54545440e-03 0. 0. 0. 0. 4.54545440e-03 0. 1.81818176e-02 0.
      9.09090880e-03 4.54545440e-03 0. 4.54545440e-03 0. 0. 0.
      4.54545440e-03 0. 0. 0. 0. 0. 0. 0. 4.54545440e-03 4.54545440e-03
      0. 0. 9.09090880e-03 0. 0. 0. 0. 0. 0. 0. 0. 0. 4.54545440e-03 0.
      0. 9.09090880e-03 0. 0. 1.36363637e-02 9.09090880e-03 0. 0. 0. 0.
      0. 4.54545440e-03 0. 0. 0. 0. 0. 0. 0. 0. 0. 0. 0. 0. 0. 0. 0. 0.
      0. 0. 0. 1.36363637e-02 0. 4.54545440e-03 0. 0. 0. 4.54545440e-03
      0. 9.09090880e-03 0. 4.54545440e-03 4.54545440e-03 0.
      4.54545440e-03 2.72727273e-02 0. 0. 9.09090880e-03 0. 0. 0. 0. 0.
      0. 0. 0. 0. 4.54545440e-03 0. 0. 4.54545440e-03 0. 4.54545440e-03
      0. 0. 0. 0. 0. 0. 0. 0. 0. 0. 0. 0. 4.54545440e-03 4.54545440e-03
      4.54545440e-03 4.54545440e-03 0. 0. 0. 0. 0. 0. 4.54545440e-03 0.
      0. 0. 0. 0. 0. 0. 4.54545440e-03 0. 4.54545440e-03 0.
      4.54545440e-03 0. 0. 4.54545440e-03 4.54545440e-03 0. 0. 0.
      4.54545440e-03 4.54545440e-03 0. 1.36363637e-02 9.09090880e-03 0.
      0. 0. 0. 0. 0. 0. 0. 4.54545440e-03 0. 0. 0. 1.36363637e-02 0. 0.
      0. 0. 4.54545440e-03 0. 9.09090880e-03 0. 0. 0. 0. 0. 0. 0. 0.
      4.54545440e-03 0. 0. 0. 0. 4.54545440e-03 0. 0. 4.54545440e-03
      4.54545440e-03 0. 4.54545440e-03 0. 0. 4.54545440e-03 0. 0. 0. 0.
      9.09090880e-03 0. 0. 4.54545440e-03 0. 0. 6.36363626e-02 0. 0.
      9.09090880e-03 4.54545440e-03 0. 0. 4.54545440e-03 0. 0. 0. 0.
      4.54545440e-03 0. 0. 0. 0. 0. 9.09090880e-03 0. 4.54545440e-03 0.
      0. 0. 4.54545440e-03 4.54545440e-03 0. 0. 0. 0. 0. 0. 0.
      9.09090880e-03 0. 0. 0. 0. 0. 0. 0. 0. 0. 4.54545440e-03 0. 0. 0.
      4.54545440e-03 0. 0. 0. 0. 4.54545440e-03 0. 0. 0. 0. 0. 0. 0. 0.
      0. 0. 0. 4.54545440e-03 0. 9.09090880e-03 0. 4.54545440e-03 0. 0.
      9.09090880e-03 0. 0. 0. 0. 0. 0. 0. 4.54545440e-03 0. 0. 0. 0.
      4.54545440e-03 0. 0. 4.54545468e-02 0. 0. 0. 0. 9.09090880e-03 0.
      9.09090880e-03 0. 0. 0. 0. 1.81818176e-02 0. 0. 0. 9.09090880e-03
      0. 0. 0. 4.54545440e-03 0. 0. 0. 0. 0. 0. 9.09090880e-03 0. 0. 0.
      0. 0.</_>
    <_>
      0. 0. 2.38095247e-03 0. 0. 7.14285718e-03 0. 4.76190494e-03 0. 0.
      0. 4.76190494e-03 0. 2.38095247e-03 0. 0. 0. 2.38095247e-03 0.
      2.38095247e-03 2.38095247e-03 2.38095247e-03 7.14285718e-03 0. 0.
      0. 2.38095247e-03 4.76190494e-03 2.38095247e-03 0. 0.
      2.38095247e-03 0. 4.76190494e-03 0. 2.38095247e-03 7.14285718e-03
      0. 2.38095247e-03 0. 2.38095247e-03 2.38095247e-03 2.38095247e-03
      2.38095247e-03 0. 0. 0. 2.38095247e-03 0. 0. 2.38095247e-03 0.
      4.76190494e-03 0. 9.52380989e-03 0. 0. 4.76190494e-03
      2.38095247e-03 0. 2.38095247e-03 2.38095247e-03 4.76190494e-03
      2.38095247e-03 4.76190494e-03 0. 0. 0. 0. 0. 0. 7.14285718e-03 0.
      0. 0. 0. 0. 0. 9.52380989e-03 0. 0. 2.38095247e-03 0.
      2.38095247e-03 2.38095247e-03 4.76190494e-03 2.38095247e-03
      2.38095247e-03 0. 2.38095247e-03 0. 0. 0. 2.38095247e-03 0. 0. 0.
      4.76190494e-03 0. 0. 0. 0. 0. 0. 0. 4.76190494e-03 4.76190494e-03
      0. 2.38095247e-03 0. 0. 2.38095247e-03 0. 4.76190494e-03 0.
      2.38095247e-03 4.76190494e-03 0. 4.76190494e-03 4.76190494e-03
      1.66666675e-02 2.38095247e-03 2.38095247e-03 2.38095247e-03
      4.76190494e-03 0. 0. 2.38095247e-03 4.76190494e-03 2.38095247e-03
      2.38095247e-03 4.76190494e-03 0. 0. 7.14285718e-03 0.
      2.38095247e-03 4.76190494e-03 0. 4.76190494e-03 2.38095247e-03 0.
      2.38095247e-03 0. 0. 0. 1.42857144e-02 0. 0. 2.38095247e-03 0.
      2.38095247e-03 2.38095247e-03 2.38095247e-03 0. 2.38095247e-03 0.
      2.38095247e-03 0. 0. 0. 2.38095247e-03 0. 0. 4.76190494e-03
      2.38095247e-03 0. 0. 7.14285718e-03 4.76190494e-03 0. 0. 0. 0.
      4.76190494e-03 2.38095247e-03 2.38095247e-03 7.14285718e-03 0. 0.
      4.76190494e-03 2.38095247e-03 0. 2.38095247e-03 0. 4.76190494e-03
      2.38095247e-03 0. 0. 0. 0. 4.76190494e-03 2.38095247e-03 0.
      1.66666675e-02 2.38095247e-03 0. 7.14285718e-03 2.38095247e-03 0.
      4.76190494e-03 2.38095247e-03 2.38095247e-03 2.38095247e-03 0.
      2.38095247e-03 7.14285718e-03 2.38095247e-03 2.38095247e-03 0. 0.
      0. 0. 0. 0. 0. 0. 0. 2.38095247e-03 0. 2.38095247e-03 0.
      2.38095247e-03 2.38095247e-03 0. 0. 2.38095247e-03 2.38095247e-03
      2.38095247e-03 4.76190494e-03 0. 0. 2.38095247e-03 0. 0. 0.
      2.38095247e-03 9.52380989e-03 0. 0. 0. 0. 0. 7.14285718e-03 0.
      4.76190494e-03 0. 0. 0. 0. 0. 0. 0. 0. 0. 0. 2.38095247e-03
      1.90476198e-02 1.19047621e-02 0. 2.38095247e-03 0. 0.
      2.38095247e-03 2.38095247e-03 2.38095247e-03 0. 0. 2.38095247e-03
      0. 0. 2.38095247e-03 2.38095247e-03 0. 2.38095247e-03
      4.76190494e-03 0. 0. 0. 1.42857144e-02 2.38095247e-03
      2.38095247e-03 4.76190494e-03 7.14285718e-03 2.38095247e-03 0. 0.
      0. 2.38095247e-03 4.76190494e-03 0. 2.38095247e-03 0. 0.
      2.38095247e-03 2.38095247e-03 0. 0. 2.38095247e-03 9.52380989e-03
      0. 2.38095247e-03 2.38095247e-03 0. 0. 2.38095247e-03
      4.76190494e-03 0. 2.38095247e-03 2.38095247e-03 2.38095247e-03
      4.76190494e-03 0. 0. 7.14285718e-03 0. 2.38095247e-03
      2.38095247e-03 4.76190494e-03 4.76190494e-03 0. 0. 0. 0.
      2.38095247e-03 0. 1.19047621e-02 0. 0. 2.38095247e-03 0. 0. 0.
      2.38095247e-03 0. 7.14285718e-03 0. 7.14285718e-03 0. 0.
      2.38095247e-03 0. 0. 2.38095247e-03 0. 1.66666675e-02 0. 0.
      4.76190494e-03 0. 2.38095247e-03 0. 0. 0. 2.38095247e-03
      2.38095247e-03 9.52380989e-03 7.14285718e-03 0. 7.14285718e-03
      4.76190494e-03 4.76190494e-03 2.38095247e-03 4.76190494e-03 0. 0.
      0. 2.38095247e-03 2.38095247e-03 0. 0. 2.38095247e-03 0. 0. 0. 0.
      7.14285718e-03 4.76190494e-03 0. 0. 0. 7.14285718e-03 0.
      7.14285718e-03 0. 2.38095247e-03 2.38095247e-03 0. 0.
      4.76190494e-03 7.14285718e-03 2.38095247e-03 0. 7.14285718e-03 0.
      0. 2.38095247e-03 2.38095247e-03 0. 7.14285718e-03 0.
      2.38095247e-03 2.38095247e-03 2.38095247e-03 2.38095247e-03
      2.38095247e-03 0. 0. 2.38095247e-03 1.66666675e-02 2.38095247e-03
      2.38095247e-03 0. 0. 2.38095247e-03 0. 2.38095247e-03 0.
      7.14285718e-03 0. 0. 0. 2.38095247e-03 2.38095247e-03
      4.76190494e-03 4.76190494e-03 0. 4.76190494e-03 2.38095247e-03
      4.76190494e-03 2.38095247e-03 4.76190494e-03 0. 0. 0. 0.
      4.76190494e-03 0. 0. 0. 2.38095247e-03 0. 0. 0. 7.14285718e-03 0.
      2.38095247e-03 2.38095247e-03 0. 0. 0. 0. 7.14285718e-03
      2.38095247e-03 0. 0. 4.76190494e-03 0. 0. 0. 2.38095247e-03
      1.19047621e-02 0. 4.76190494e-03 2.38095247e-03 2.38095247e-03
      4.76190494e-03 0. 2.38095247e-03 0. 0. 4.76190494e-03
      1.42857144e-02 0. 0. 4.76190494e-03 0. 0. 2.38095247e-03 0. 0. 0.
      2.38095247e-03 2.38095247e-03 0. 9.52380989e-03 4.76190494e-03 0.
      0. 0. 2.38095247e-03 2.38095247e-03 0. 0. 0. 0. 2.38095247e-03 0.
      2.38095247e-03 0.</_>
    <_>
      2.35849060e-03 0. 2.35849060e-03 0. 2.35849060e-03 0.
      4.71698120e-03 0. 2.35849060e-03 0. 0. 0. 2.35849060e-03 0.
      9.43396240e-03 0. 2.35849060e-03 2.35849060e-03 0. 0.
      4.71698120e-03 0. 7.07547180e-03 2.35849060e-03 2.35849060e-03
      2.35849060e-03 0. 0. 0. 0. 2.35849060e-03 0. 0. 2.35849060e-03 0.
      0. 0. 2.35849060e-03 2.35849060e-03 2.35849060e-03 0.
      7.07547180e-03 0. 0. 0. 2.35849060e-03 0. 2.35849060e-03
      2.35849060e-03 2.35849060e-03 0. 2.35849060e-03 2.35849060e-03 0.
      4.71698120e-03 2.35849060e-03 2.35849060e-03 0. 2.35849060e-03 0.
      0. 0. 2.35849060e-03 7.07547180e-03 7.07547180e-03 0. 0.
      4.71698120e-03 4.71698120e-03 0. 0. 0. 2.35849060e-03
      2.35849060e-03 2.35849060e-03 2.35849060e-03 0. 0. 7.07547180e-03
      0. 4.71698120e-03 7.07547180e-03 2.35849060e-03 0. 0. 0.
      2.35849060e-03 0. 0. 0. 4.71698120e-03 0. 4.71698120e-03 0.
      4.71698120e-03 2.35849060e-03 4.71698120e-03 2.35849060e-03 0.
      9.43396240e-03 2.35849060e-03 0. 0. 0. 0. 0. 2.35849060e-03 0.
      4.71698120e-03 2.35849060e-03 4.71698120e-03 2.35849060e-03
      2.35849060e-03 4.71698120e-03 2.35849060e-03 0. 2.35849060e-03 0.
      2.35849060e-03 4.71698120e-03 0. 2.35849060e-03 7.07547180e-03
      2.35849060e-03 0. 0. 2.35849060e-03 2.35849060e-03 0. 0. 0. 0. 0.
      2.35849060e-03 0. 0. 4.71698120e-03 2.35849060e-03 2.35849060e-03
      0. 9.43396240e-03 7.07547180e-03 0. 0. 0. 4.71698120e-03
      2.35849060e-03 0. 0. 4.71698120e-03 0. 2.35849060e-03
      1.17924530e-02 0. 0. 4.71698120e-03 2.35849060e-03 2.35849060e-03
      2.35849060e-03 0. 0. 4.71698120e-03 4.71698120e-03 2.35849060e-03
      0. 7.07547180e-03 2.35849060e-03 2.35849060e-03 2.35849060e-03
      2.35849060e-03 0. 2.35849060e-03 0. 0. 7.07547180e-03 0.
      4.71698120e-03 0. 0. 2.35849060e-03 0. 2.35849060e-03 0.
      2.35849060e-03 2.35849060e-03 0. 0. 0. 0. 2.35849060e-03
      1.17924530e-02 0. 4.71698120e-03 2.35849060e-03 0. 0. 0.
      2.35849060e-03 0. 0. 0. 2.35849060e-03 2.35849060e-03
      9.43396240e-03 2.35849060e-03 0. 0. 2.35849060e-03 7.07547180e-03
      4.71698120e-03 0. 0. 0. 4.71698120e-03 0. 0. 2.35849060e-03
      4.71698120e-03 2.35849060e-03 4.71698120e-03 0. 0. 0.
      2.35849060e-03 0. 0. 0. 2.35849060e-03 0. 4.71698120e-03
      7.07547180e-03 2.35849060e-03 4.71698120e-03 2.35849060e-03 0.
      2.35849060e-03 0. 4.71698120e-03 2.35849060e-03 2.35849060e-03 0.
      0. 0. 0. 0. 0. 0. 7.07547180e-03 7.07547180e-03 0. 0.
      2.35849060e-03 0. 0. 0. 4.71698120e-03 2.35849060e-03
      2.35849060e-03 0. 2.35849060e-03 2.35849060e-03 0. 2.35849060e-03
      4.71698120e-03 0. 2.35849060e-03 0. 9.43396240e-03 4.71698120e-03
      2.35849060e-03 7.07547180e-03 0. 0. 4.71698120e-03 4.71698120e-03
      4.71698120e-03 0. 2.35849060e-03 0. 0. 2.35849060e-03 0. 0.
      2.35849060e-03 2.35849060e-03 4.71698120e-03 7.07547180e-03 0. 0.
      2.35849060e-03 2.35849060e-03 0. 0. 4.71698120e-03 4.71698120e-03
      2.35849060e-03 0. 7.07547180e-03 0. 0. 2.35849060e-03 0.
      2.35849060e-03 1.17924530e-02 0. 0. 2.35849060e-03 0. 0.
      2.35849060e-03 4.71698120e-03 2.35849060e-03 0. 2.35849060e-03 0.
      0. 2.35849060e-03 0. 0. 0. 0. 0. 7.07547180e-03 0. 0. 0. 0.
      2.35849060e-03 0. 7.07547180e-03 0. 0. 0. 0. 4.71698120e-03
      4.71698120e-03 4.71698120e-03 0. 0. 0. 2.35849060e-03 0. 0. 0.
      2.35849060e-03 2.35849060e-03 0. 0. 0. 2.35849060e-03
      4.71698120e-03 2.35849060e-03 4.71698120e-03 0. 2.35849060e-03 0.
      7.07547180e-03 9.43396240e-03 4.71698120e-03 4.71698120e-03
      7.07547180e-03 0. 7.07547180e-03 2.35849060e-03 2.35849060e-03
      7.07547180e-03 0. 2.35849060e-03 4.71698120e-03 0. 2.35849060e-03
      0. 2.35849060e-03 0. 2.35849060e-03 0. 0. 2.35849060e-03 0.
      9.43396240e-03 2.35849060e-03 2.35849060e-03 0. 4.71698120e-03 0.
      0. 0. 0. 4.71698120e-03 7.07547180e-03 0. 0. 0. 2.35849060e-03
      2.35849060e-03 2.35849060e-03 0. 4.71698120e-03 0. 0. 0.
      4.71698120e-03 0. 0. 0. 0. 1.17924530e-02 0. 0. 2.35849060e-03 0.
      0. 0. 0. 4.71698120e-03 0. 7.07547180e-03 4.71698120e-03 0. 0. 0.
      0. 0. 0. 4.71698120e-03 2.35849060e-03 0. 0. 2.35849060e-03
      7.07547180e-03 4.71698120e-03 2.35849060e-03 2.35849060e-03 0.
      4.71698120e-03 0. 2.35849060e-03 2.35849060e-03 2.35849060e-03 0.
      2.35849060e-03 2.35849060e-03 4.71698120e-03 0. 2.35849060e-03 0.
      2.35849060e-03 0. 2.35849060e-03 2.35849060e-03 2.35849060e-03
      2.35849060e-03 2.35849060e-03 4.71698120e-03 7.07547180e-03 0. 0.
      0. 0. 4.71698120e-03 2.35849060e-03 7.07547180e-03 4.71698120e-03
      0. 0. 7.07547180e-03 0. 0. 1.17924530e-02 0. 0. 2.35849060e-03
      4.71698120e-03 9.43396240e-03 2.35849060e-03 0. 0. 0.
      4.71698120e-03 2.35849060e-03 0. 0. 2.35849060e-03 2.35849060e-03
      2.35849060e-03 0. 0. 0. 4.71698120e-03 0. 4.71698120e-03 0.
      1.17924530e-02 2.35849060e-03 0. 2.35849060e-03 0. 0.
      2.35849060e-03 0.</_>
    <_>
      2.39234441e-03 0. 2.39234441e-03 2.39234441e-03 7.17703346e-03
      2.39234441e-03 4.78468882e-03 2.39234441e-03 0. 2.39234441e-03
      4.78468882e-03 0. 0. 4.78468882e-03 0. 2.39234441e-03 0.
      7.17703346e-03 2.39234441e-03 0. 2.39234441e-03 0. 2.39234441e-03
      0. 2.39234441e-03 0. 0. 2.39234441e-03 2.39234441e-03
      7.17703346e-03 0. 0. 2.39234441e-03 2.39234441e-03 0. 0.
      1.19617227e-02 9.56937764e-03 2.39234441e-03 1.91387553e-02
      2.39234441e-03 2.39234441e-03 0. 0. 2.39234441e-03 2.39234441e-03
      0. 4.78468882e-03 0. 0. 0. 0. 7.17703346e-03 2.39234441e-03 0. 0.
      2.39234441e-03 0. 0. 2.39234441e-03 2.39234441e-03 2.39234441e-03
      0. 2.39234441e-03 2.39234441e-03 2.39234441e-03 0. 2.39234441e-03
      2.39234441e-03 2.39234441e-03 2.39234441e-03 2.39234441e-03
      2.39234441e-03 2.39234441e-03 2.39234441e-03 0. 4.78468882e-03
      2.39234441e-03 4.78468882e-03 4.78468882e-03 4.78468882e-03
      2.39234441e-03 0. 0. 2.39234441e-03 2.39234441e-03 2.39234441e-03
      9.56937764e-03 4.78468882e-03 2.39234441e-03 2.39234441e-03 0. 0.
      4.78468882e-03 0. 4.78468882e-03 2.39234441e-03 0. 0. 0.
      2.39234441e-03 0. 0. 0. 4.78468882e-03 2.39234441e-03 0.
      7.17703346e-03 0. 0. 4.78468882e-03 0. 0. 4.78468882e-03 0.
      2.39234441e-03 4.78468882e-03 0. 0. 0. 0. 4.78468882e-03 0. 0.
      2.39234441e-03 0. 2.39234441e-03 2.39234441e-03 0. 0.
      4.78468882e-03 0. 4.78468882e-03 0. 0. 0. 2.39234441e-03
      2.39234441e-03 2.39234441e-03 4.78468882e-03 2.39234441e-03 0.
      2.39234441e-03 0. 0. 0. 0. 2.39234441e-03 2.39234441e-03 0.
      4.78468882e-03 7.17703346e-03 4.78468882e-03 4.78468882e-03
      2.39234441e-03 0. 0. 2.39234441e-03 9.56937764e-03 4.78468882e-03
      2.39234441e-03 2.39234441e-03 2.39234441e-03 2.39234441e-03 0. 0.
      0. 4.78468882e-03 4.78468882e-03 2.39234441e-03 0. 0. 0. 0. 0. 0.
      2.39234441e-03 0. 2.39234441e-03 2.39234441e-03 0. 2.39234441e-03
      2.39234441e-03 0. 0. 0. 2.39234441e-03 0. 2.39234441e-03
      2.39234441e-03 0. 4.78468882e-03 0. 0. 9.56937764e-03
      2.39234441e-03 0. 4.78468882e-03 4.78468882e-03 0. 0.
      2.39234441e-03 2.39234441e-03 0. 0. 0. 0. 0. 0. 7.17703346e-03
      2.39234441e-03 2.39234441e-03 0. 2.39234441e-03 2.39234441e-03
      4.78468882e-03 2.39234441e-03 4.78468882e-03 0. 2.39234441e-03 0.
      0. 0. 0. 0. 2.39234441e-03 0. 0. 4.78468882e-03 2.39234441e-03
      2.39234441e-03 2.39234441e-03 0. 0. 2.39234441e-03 0. 0.
      9.56937764e-03 2.39234441e-03 4.78468882e-03 0. 0. 4.78468882e-03
      2.39234441e-03 0. 4.78468882e-03 4.78468882e-03 7.17703346e-03 0.
      0. 0. 0. 4.78468882e-03 0. 0. 0. 0. 7.17703346e-03 0.
      2.39234441e-03 0. 0. 0. 2.39234441e-03 0. 2.39234441e-03 0.
      1.19617227e-02 2.39234441e-03 0. 0. 0. 0. 0. 0. 4.78468882e-03 0.
      2.39234441e-03 7.17703346e-03 2.39234441e-03 0. 0. 0. 0.
      7.17703346e-03 2.39234441e-03 0. 0. 2.39234441e-03 0.
      2.39234441e-03 0. 0. 7.17703346e-03 7.17703346e-03 0.
      4.78468882e-03 0. 2.39234441e-03 2.39234441e-03 0. 0. 0. 0.
      4.78468882e-03 0. 2.39234441e-03 0. 9.56937764e-03 4.78468882e-03
      4.78468882e-03 0. 0. 4.78468882e-03 4.78468882e-03 0. 0. 0.
      7.17703346e-03 0. 2.39234441e-03 7.17703346e-03 0. 0.
      2.39234441e-03 0. 4.78468882e-03 2.39234441e-03 0. 2.39234441e-03
      7.17703346e-03 4.78468882e-03 0. 0. 0. 0. 0. 4.78468882e-03
      4.78468882e-03 0. 0. 0. 0. 0. 0. 2.39234441e-03 0. 2.39234441e-03
      2.39234441e-03 4.78468882e-03 0. 0. 7.17703346e-03 2.39234441e-03
      4.78468882e-03 0. 4.78468882e-03 0. 0. 4.78468882e-03 0. 0. 0. 0.
      7.17703346e-03 4.78468882e-03 0. 0. 4.78468882e-03 2.39234441e-03
      4.78468882e-03 4.78468882e-03 2.39234441e-03 0. 2.39234441e-03
      9.56937764e-03 2.39234441e-03 0. 2.39234441e-03 0. 2.39234441e-03
      0. 2.39234441e-03 2.39234441e-03 0. 0. 0. 7.17703346e-03
      2.39234441e-03 4.78468882e-03 2.39234441e-03 2.39234441e-03
      2.39234441e-03 2.39234441e-03 2.39234441e-03 0. 0. 0. 0.
      4.78468882e-03 0. 2.39234441e-03 0. 0. 0. 0. 0. 4.78468882e-03
      2.39234441e-03 4.78468882e-03 0. 2.39234441e-03 0. 0.
      2.39234441e-03 4.78468882e-03 0. 0. 2.39234441e-03 0. 0.
      2.39234441e-03 2.39234441e-03 2.39234441e-03 4.78468882e-03
      7.17703346e-03 2.39234441e-03 4.78468882e-03 2.39234441e-03
      2.39234441e-03 2.39234441e-03 0. 0. 0. 0. 0. 4.78468882e-03
      7.17703346e-03 2.39234441e-03 0. 0. 4.78468882e-03 0. 0.
      2.39234441e-03 0. 7.17703346e-03 0. 0. 4.78468882e-03 0. 0. 0. 0.
      2.39234441e-03 2.39234441e-03 4.78468882e-03 0. 0. 0.
      4.78468882e-03 4.78468882e-03 2.39234441e-03 0. 4.78468882e-03 0.
      0. 0. 4.78468882e-03 2.39234441e-03 4.78468882e-03 0.
      4.78468882e-03 0. 0. 0. 1.19617227e-02 0. 2.39234441e-03 0.
      2.39234441e-03 2.39234441e-03 0. 0. 1.19617227e-02 0. 0. 0.
      2.39234441e-03 0. 2.39234441e-03 7.17703346e-03 2.39234441e-03
      2.39234441e-03 0. 0. 2.39234441e-03 0. 0. 2.39234441e-03</_>
    <_>
      0. 0. 4.38596494e-03 2.19298247e-03 2.19298247e-03 0.
      8.77192989e-03 0. 0. 2.19298247e-03 0. 6.57894742e-03
      2.19298247e-03 0. 0. 2.19298247e-03 0. 4.38596494e-03 0. 0. 0. 0.
      2.19298247e-03 0. 6.57894742e-03 2.19298247e-03 0. 2.19298247e-03
      2.19298247e-03 2.19298247e-03 0. 0. 0. 0. 0. 2.19298247e-03
      4.38596494e-03 0. 0. 0. 2.19298247e-03 2.19298247e-03 0. 0. 0.
      6.57894742e-03 2.19298247e-03 0. 6.57894742e-03 0. 0. 0.
      1.09649124e-02 2.19298247e-03 2.19298247e-03 0. 0. 2.19298247e-03
      0. 2.19298247e-03 2.19298247e-03 4.38596494e-03 0. 8.77192989e-03
      1.09649124e-02 0. 0. 2.19298247e-03 8.77192989e-03 0. 0. 0. 0.
      2.19298247e-03 0. 0. 2.19298247e-03 2.19298247e-03 6.57894742e-03
      6.57894742e-03 0. 4.38596494e-03 0. 0. 4.38596494e-03 0.
      2.19298247e-03 6.57894742e-03 0. 0. 2.19298247e-03 2.19298247e-03
      8.77192989e-03 4.38596494e-03 0. 0. 0. 0. 2.19298247e-03 0.
      2.19298247e-03 0. 0. 4.38596494e-03 4.38596494e-03 4.38596494e-03
      0. 2.19298247e-03 0. 2.19298247e-03 2.19298247e-03 2.19298247e-03
      2.19298247e-03 0. 0. 0. 4.38596494e-03 0. 2.19298247e-03
      2.19298247e-03 0. 0. 0. 0. 2.19298247e-03 0. 0. 2.19298247e-03
      4.38596494e-03 4.38596494e-03 2.19298247e-03 0. 0. 0.
      2.19298247e-03 4.38596494e-03 0. 2.19298247e-03 2.19298247e-03
      4.38596494e-03 1.09649124e-02 0. 2.19298247e-03 2.19298247e-03
      4.38596494e-03 2.19298247e-03 4.38596494e-03 0. 0. 0.
      6.57894742e-03 2.19298247e-03 4.38596494e-03 8.77192989e-03 0.
      8.77192989e-03 0. 0. 6.57894742e-03 8.77192989e-03 0. 0.
      4.38596494e-03 4.38596494e-03 0. 2.19298247e-03 2.19298247e-03
      2.19298247e-03 0. 0. 2.19298247e-03 0. 0. 0. 2.19298247e-03
      2.19298247e-03 4.38596494e-03 4.38596494e-03 0. 4.38596494e-03
      6.57894742e-03 0. 2.19298247e-03 0. 0. 0. 0. 4.38596494e-03 0. 0.
      2.19298247e-03 0. 0. 2.19298247e-03 4.38596494e-03 0. 0.
      2.19298247e-03 2.19298247e-03 0. 0. 2.19298247e-03 4.38596494e-03
      0. 0. 0. 0. 6.57894742e-03 2.19298247e-03 2.19298247e-03 0. 0. 0.
      0. 0. 0. 2.19298247e-03 6.57894742e-03 0. 4.38596494e-03
      4.38596494e-03 1.09649124e-02 0. 0. 0. 0. 4.38596494e-03
      4.38596494e-03 4.38596494e-03 2.19298247e-03 0. 0. 0. 0.
      1.09649124e-02 0. 0. 6.57894742e-03 8.77192989e-03 2.19298247e-03
      0. 6.57894742e-03 2.19298247e-03 2.19298247e-03 0. 2.19298247e-03
      2.19298247e-03 2.19298247e-03 4.38596494e-03 6.57894742e-03
      2.19298247e-03 0. 0. 4.38596494e-03 0. 0. 0. 2.19298247e-03
      2.19298247e-03 0. 0. 0. 4.38596494e-03 0. 0. 0. 0. 4.38596494e-03
      0. 2.19298247e-03 0. 0. 0. 0. 4.38596494e-03 2.19298247e-03 0. 0.
      2.19298247e-03 0. 4.38596494e-03 2.19298247e-03 0. 0. 0. 0. 0.
      2.19298247e-03 2.19298247e-03 0. 4.38596494e-03 2.19298247e-03
      4.38596494e-03 2.19298247e-03 0. 2.19298247e-03 2.19298247e-03 0.
      2.19298247e-03 4.38596494e-03 0. 4.38596494e-03 0. 4.38596494e-03
      0. 2.19298247e-03 4.38596494e-03 0. 0. 2.19298247e-03 0.
      8.77192989e-03 0. 2.19298247e-03 4.38596494e-03 2.19298247e-03 0.
      6.57894742e-03 4.38596494e-03 0. 0. 4.38596494e-03 0. 0.
      2.19298247e-03 0. 2.19298247e-03 4.38596494e-03 0. 0.
      2.19298247e-03 1.31578948e-02 0. 4.38596494e-03 0. 2.19298247e-03
      0. 2.19298247e-03 0. 0. 0. 2.19298247e-03 4.38596494e-03
      4.38596494e-03 0. 2.19298247e-03 0. 0. 2.19298247e-03
      6.57894742e-03 0. 0. 0. 0. 0. 4.38596494e-03 2.19298247e-03 0. 0.
      2.19298247e-03 4.38596494e-03 1.09649124e-02 2.19298247e-03 0. 0.
      0. 0. 0. 0. 2.19298247e-03 0. 2.19298247e-03 0. 0. 0. 0. 0. 0. 0.
      4.38596494e-03 2.19298247e-03 2.19298247e-03 0. 6.57894742e-03 0.
      6.57894742e-03 4.38596494e-03 2.19298247e-03 2.19298247e-03
      2.19298247e-03 2.19298247e-03 0. 2.19298247e-03 2.19298247e-03 0.
      2.19298247e-03 2.19298247e-03 0. 0. 0. 8.77192989e-03
      2.19298247e-03 1.09649124e-02 0. 0. 2.19298247e-03 0.
      6.57894742e-03 6.57894742e-03 4.38596494e-03 4.38596494e-03
      2.19298247e-03 0. 0. 0. 4.38596494e-03 0. 2.19298247e-03
      4.38596494e-03 4.38596494e-03 0. 0. 0. 8.77192989e-03 0. 0. 0. 0.
      2.19298247e-03 4.38596494e-03 1.31578948e-02 8.77192989e-03 0. 0.
      2.19298247e-03 0. 0. 8.77192989e-03 0. 2.19298247e-03
      4.38596494e-03 0. 2.19298247e-03 2.19298247e-03 6.57894742e-03
      4.38596494e-03 0. 0. 0. 2.19298247e-03 0. 2.19298247e-03 0.
      2.19298247e-03 2.19298247e-03 4.38596494e-03 0. 0. 6.57894742e-03
      8.77192989e-03 2.19298247e-03 6.57894742e-03 0. 2.19298247e-03
      2.19298247e-03 4.38596494e-03 0. 0. 1.53508773e-02 0. 0. 0.
      4.38596494e-03 0. 0. 4.38596494e-03 0. 0. 0. 4.38596494e-03
      2.19298247e-03 0. 4.38596494e-03 0. 2.19298247e-03 2.19298247e-03
      0. 4.38596494e-03 4.38596494e-03 0. 6.57894742e-03 0. 0. 0. 0.
      4.38596494e-03 0. 0. 4.38596494e-03 0.</_>
    <_>
      3.41296918e-03 0. 0. 0. 3.41296918e-03 0. 0. 0. 6.82593836e-03
      6.82593836e-03 0. 6.82593836e-03 0. 0. 0. 0. 0. 2.04778165e-02 0.
      0. 0. 0. 0. 0. 0. 0. 0. 0. 3.41296918e-03 0. 3.41296918e-03 0. 0.
      3.41296918e-03 0. 1.36518767e-02 0. 0. 0. 3.41296918e-03 0.
      3.41296918e-03 0. 0. 0. 0. 0. 0. 3.41296918e-03 3.41296918e-03
      6.82593836e-03 3.41296918e-03 3.41296918e-03 0. 1.70648471e-02 0.
      0. 1.02389082e-02 0. 0. 3.41296918e-03 0. 0. 0. 0. 3.41296918e-03
      3.41296918e-03 3.41296918e-03 0. 3.41296918e-03 0. 6.82593836e-03
      0. 0. 0. 0. 3.41296918e-03 0. 0. 0. 0. 0. 6.82593836e-03 0. 0. 0.
      0. 3.41296918e-03 0. 0. 0. 3.41296918e-03 6.82593836e-03 0. 0. 0.
      6.82593836e-03 0. 0. 6.82593836e-03 0. 0. 1.02389082e-02 0. 0. 0.
      3.41296918e-03 3.41296918e-03 0. 3.41296918e-03 3.41296918e-03 0.
      0. 0. 0. 0. 0. 3.41296918e-03 0. 6.82593836e-03 0. 0.
      3.41296918e-03 3.41296918e-03 0. 6.82593836e-03 6.82593836e-03 0.
      0. 0. 0. 0. 0. 0. 0. 0. 0. 0. 0. 0. 3.41296918e-03 1.36518767e-02
      0. 3.41296918e-03 0. 0. 0. 3.41296918e-03 3.41296918e-03
      3.41296918e-03 3.41296918e-03 0. 1.36518767e-02 1.02389082e-02
      6.82593836e-03 0. 6.82593836e-03 0. 0. 0. 0. 0. 0. 0. 0. 0. 0. 0.
      0. 3.41296918e-03 0. 0. 3.41296918e-03 0. 0. 0. 3.41296918e-03 0.
      0. 0. 0. 0. 0. 1.70648471e-02 0. 1.02389082e-02 6.82593836e-03 0.
      0. 3.41296918e-03 0. 0. 0. 6.82593836e-03 3.41296918e-03
      1.02389082e-02 3.41296918e-03 0. 0. 0. 3.41296918e-03 0. 0. 0. 0.
      0. 0. 0. 3.41296918e-03 0. 6.82593836e-03 3.41296918e-03 0. 0.
      1.02389082e-02 0. 0. 0. 0. 0. 3.41296918e-03 0. 0. 6.82593836e-03
      0. 0. 0. 0. 3.41296918e-03 0. 0. 3.41296918e-03 0. 0. 0. 0.
      1.02389082e-02 0. 0. 0. 3.41296918e-03 0. 3.41296918e-03
      6.82593836e-03 0. 6.82593836e-03 3.41296918e-03 6.82593836e-03 0.
      1.36518767e-02 3.41296918e-03 0. 0. 6.82593836e-03 1.36518767e-02
      0. 3.41296918e-03 0. 0. 0. 0. 3.07167228e-02 0. 0. 2.04778165e-02
      0. 0. 0. 6.82593836e-03 3.41296918e-03 0. 6.82593836e-03 0. 0.
      6.82593836e-03 3.41296918e-03 0. 0. 0. 0. 1.02389082e-02 0. 0.
      6.82593836e-03 3.41296918e-03 3.41296918e-03 0. 3.41296918e-03 0.
      0. 0. 6.82593836e-03 0. 3.41296918e-03 0. 0. 0. 0. 0.
      3.41296918e-03 0. 3.41296918e-03 0. 0. 0. 3.41296918e-03 0. 0. 0.
      0. 3.41296918e-03 6.82593836e-03 0. 0. 0. 6.82593836e-03 0.
      3.41296918e-03 0. 0. 0. 0. 3.41296918e-03 0. 0. 3.41296918e-03 0.
      3.41296918e-03 0. 0. 0. 0. 3.41296918e-03 0. 3.41296918e-03
      3.41296918e-03 0. 0. 0. 0. 0. 3.41296918e-03 0. 3.41296918e-03
      1.02389082e-02 3.41296918e-03 3.41296918e-03 1.36518767e-02 0.
      6.82593836e-03 3.41296918e-03 0. 0. 0. 0. 0. 3.41296918e-03
      6.82593836e-03 6.82593836e-03 1.02389082e-02 3.41296918e-03 0.
      3.41296918e-03 0. 3.41296918e-03 0. 3.41296918e-03 0. 0. 0. 0.
      3.41296918e-03 1.02389082e-02 0. 0. 1.36518767e-02 0. 0. 0.
      3.41296918e-03 1.02389082e-02 0. 6.82593836e-03 0. 0. 0. 0. 0. 0.
      0. 0. 0. 0. 0. 0. 0. 0. 0. 1.02389082e-02 0. 0. 0. 0.
      3.41296918e-03 0. 0. 0. 0. 0. 0. 0. 0. 3.41296918e-03
      1.36518767e-02 6.82593836e-03 0. 0. 0. 3.41296918e-03 0. 0. 0. 0.
      3.41296918e-03 0. 3.41296918e-03 0. 0. 6.82593836e-03 0.
      3.41296918e-03 0. 1.02389082e-02 6.82593836e-03 6.82593836e-03 0.
      0. 0. 3.41296918e-03 0. 0. 0. 3.41296918e-03 3.41296918e-03
